-0.197228,-0.965160,0.994329,0.109946,-0.571966,0.131167,-0.634462,-0.413844,0.910983,0.355913,0.563925,0.837884,-0.914412,-0.784283,-0.491449,0.484652,-0.730104,0.055406,0.314946,-0.260156,-0.148813,0.529240,-0.006584,0.162665,0.773091,0.962217,0.447025,0.126370,-0.576134,-0.787648,-0.209829,-0.718279,0.329638,0.057751,-0.534021,-0.102156,-0.082226,-0.283911,-0.990561,0.441638,-0.830114,0.444962,-0.669300,-0.647317,-0.384086,0.292969,0.283935,-0.655596,0.400541,-0.762972,0.290572,0.061415,-0.987729,-0.381917,0.989188,-0.705616,0.885198,-0.833387,0.186200,0.796169,0.385108,-0.783022,0.108786,-0.060843,-0.018774,0.723299,0.585140,-0.791606,-0.198554,-0.976455,0.079374,-0.035333,0.392595,-0.857964,0.511649,0.237111,0.417284,0.689060,-0.445443,0.471659,-0.361782,-0.766646,-0.556763,0.849636,-0.402554,-0.503687,-0.218979,0.876275,-0.449258,-0.768772,0.770803,-0.806665,-1.136382,-1.127359,-0.979221,-0.499348,-1.244673,-1.282276,-1.319397,-0.235650,-0.600359,-0.962673,-0.872802,0.251658,-1.027471,-0.480310,0.680273,-0.518348,-0.064033,-0.181097,-0.151486,0.330197,-0.568031,0.033526,-0.307738,-0.413268,-0.064749,0.148397,-0.490422,-0.574159,0.207698,-1.204044,-0.166481,-0.374169,-0.249525,-1.372617,-0.097365,-1.712585,-0.299542,0.278966,0.922004,-0.403212,-0.934995,1.061668,-0.573555,0.325884,1.053552,-0.553927,-0.910337,-0.944572,-0.493967,0.298166,-0.039696,0.214383,-0.969162,0.712342,-0.845531,-0.280074,-0.446912,-0.630833,-1.267951,-0.559871,-0.084374,-0.088944,-1.312159,0.645693,-0.731569,-0.860298,0.510048,0.359608,-0.695921,0.505092,1.348267,-0.165517,0.175230,-0.388505,-0.351766,0.966254,0.672625,0.073117,-0.338148,0.945722,-0.126551,-0.097802,0.586962,0.266368,1.376450,-0.460485,0.866639,-0.330855,-0.596966,0.893245,-0.332589,0.463384,0.310559,0.883849,0.126783,-0.490364,-0.564409,-0.197820,0.899565,0.902842,-0.217267,-0.101224,0.771613,0.106789,0.974516,0.251223,0.960425,-0.748094,-0.882527,0.074215,-0.108338,-0.658228,0.102070,-0.257727,-0.307504,-0.866194,-0.181892,-0.107802,0.074451,0.166739,-0.133250,0.381146,-0.314949,-0.384022,0.043744,-0.791875,0.283200,0.723454,-0.116928,0.217970,0.723526,-0.698112,-0.158989,-0.792222,0.195996,0.522799,0.180059,0.452126,0.885807,0.214102,-0.254621,0.044389,0.538445,0.092313,-0.258722,0.145036,0.175699,-0.799910,0.789849,-0.698019,-0.518692,-0.727984,-0.895763,0.902306,0.256300,-0.091068,-0.168356,0.778725,0.985106,-0.914373,-0.238386,0.940775,-0.129842,0.517491,-0.728778,0.439030,0.432750,-0.921639,-0.614408,0.603026,-0.092697,0.912531,-0.708045,-0.006370,-1.123612,0.148533,-0.271267,0.505725,-0.503013,-0.309048,0.313327,-0.552095,-0.738658,0.015713,-0.479121,-0.068503,0.006655,-0.756285,0.374863,-0.605743,0.972886,0.434324,-0.714508,-0.291524,0.491652,1.111534,-0.242876,0.971201,0.407142,0.090599,0.751052,0.669908,-0.716606,0.939296,0.628718,-0.770661,0.735320,-0.137318,0.122203,0.006701,0.287123,0.713137,0.149581,-0.085256,0.676556,-0.174318,-0.723513,-0.024959,0.940697,-0.013001,1.322985,-0.007218,0.078383,-0.051719,1.197482,-0.284882,1.926009,0.509431,0.540030,-0.739085,0.203163,0.692766,0.985082,1.060921,0.400296,0.767032,-0.478471,0.681478,0.242939,0.261213,0.595321,0.924227,0.798058,-0.261372,-0.094917,-0.642148,-0.227542,0.330126,1.238448,0.690212,1.586796,0.912674,1.084481,0.681830,1.436441,0.939714,0.048751,-1.049335,-0.581126,-0.199861,0.679458,0.662914,0.392537,1.420323,1.082955,-0.284275,-0.952189,-1.211747,-1.413267,0.080062,-0.508620,-0.992072,0.307981,-0.908966,0.734493,0.614571,-0.436093,-0.083765,-0.376943,0.921405,0.653467,0.757951,1.469655,-0.792021,-0.831999,0.052665,-1.060026,-0.758854,-1.075451,0.723205,0.653425,0.079384,-0.363836,1.176374,1.179901,-0.414729,-0.678444,-0.198211,-0.576027,0.121565,-0.414798,0.154310,-0.337347,0.214003,0.264762,1.260465,1.116550,0.245785,1.100287,0.786056,-0.315210,0.042592,-0.820315,-0.732305,-1.253442,-0.783026,0.456538,0.478496,0.209419,0.321037,0.854282,-0.877251,-0.154631,-0.471800,-1.343133,0.304369,0.925728,0.258787,0.932390,-0.608039,0.809663,-0.531502,-0.241919,0.584894,-0.145474,-0.059294,0.655836,1.062373,0.053079,0.067850,0.394105,-0.941976,-1.122385,-1.522794,-0.353670,1.703136,0.985788,-0.161158,0.301161,-0.600192,0.247129,0.371582,0.152467,-0.771206,-0.957795,0.439530,0.767729,0.276681,0.882016,0.490543,0.696544,-0.597630,-0.739767,-0.314244,-0.013274,0.600464,0.562973,0.048148,0.351971,-0.794089,-1.702512,-0.451232,0.260211,0.715065,-0.264094,-0.756020,-0.174357,0.506999,-0.918478,0.496907,-0.977035,-1.005359,0.415307,-0.457942,-0.284059,-0.364294,-0.555255,-0.707985,-1.080200,0.905013,-0.272159,0.087864,-0.161699,0.562872,-0.060284,0.164505,-0.210281,-0.543968,-0.912325,0.751828,1.185362,0.294407,0.591582,0.021052,-1.273429,-1.229910,-0.216410,-1.437668,-0.672568,-0.069819,-0.695636,0.438799,0.788683,-0.561098,0.840543,-0.347786,0.348602,-0.060723,-0.417458,-1.220033,-0.093705,-0.794509,0.202200,-0.332838,-0.860916,-1.262319,-0.050137,0.524405,0.410152,-0.504921,-1.221548,-1.056762,-0.381288,-0.113003,-0.825552,-0.330807,0.115291,0.073068,0.502466,-0.087280,0.489056,-0.592478,0.052628,-0.193131,-0.574650,-0.134236,-0.968746,0.012741,-1.118288,-0.431575,-1.134049,-0.678625,-1.451137,-1.076189,-0.544752,0.665212,0.520474,-0.942153,-0.366617,-0.457086,-0.135068,-1.603900,-0.918455,0.338824,0.430043,0.086848,-0.527691,-0.636963,0.306333,-0.538579,-0.991065,0.269646,-0.901580,-0.184133,0.457724,-1.497638,-0.264037,-1.519049,-1.657786,-2.037359,-1.916578,-1.589957,0.211583,-0.390874,-0.240360,0.720340,-1.074760,-0.243821,-0.996639,-0.032155,-0.977886,-0.699988,-0.408934,-0.334415,0.955211,0.887917,0.003436,-0.988615,0.954850,0.201209,-0.339146,0.162618,0.475292,-0.991429,-0.151189,-0.284458,-1.781088,-1.436726,-0.996111,-0.893573,-1.574926,0.758087,0.566125,0.535149,-0.213084,0.146568,-1.298747,-0.285294,0.710443,1.090016,-0.482722,0.836736,-0.009118,-0.988000,-0.953579,-0.041421,0.826520,-0.585760,-1.089252,-0.337360,-0.700207,-0.303188,0.241451,-1.050088,0.139379,-1.069289,0.166244,-0.736756,0.393558,0.213182,-0.038707,0.239117,-0.117752,0.172972,-0.435720,0.519360,1.079447,-0.530225,1.028564,-0.809890,-0.096864,-0.299683,-0.411074,0.621660,0.332233,-0.820612,0.174294,0.282190,0.083381,-1.097700,-0.240023,-0.221446,-0.413772,-0.524800,-0.406173,0.015855,0.977077,0.518318,-0.475801,0.516825,-0.464313,0.484026,0.146515,-0.207070,0.437184,-0.158852,0.721278,-0.051500,-0.489202,-0.955371,-0.680950,-0.869375,-0.595928,0.202077,0.619299,-0.051573,-0.002480,-0.346467,-0.942029,-0.660096,0.087520,0.375314,-0.958039,-0.180433,0.270909,-0.039151,0.263858,0.524478,0.624377,0.771165,0.887591,0.794893,1.099184,0.816713,0.183899,0.799227,0.950008,-0.005937,-0.413442,-0.816452,0.575509,-0.255910,-0.698580,0.110702,-0.263633,-0.800526,0.087246,-0.085091,-0.402934,-1.015747,-0.174846,-0.349587,0.189475,0.083903,0.745266,-0.303019,0.385745,0.648729,0.040032,0.163602,0.473528,0.356591,-0.239052,0.977746,-0.269210,-0.028244,0.975748,-0.132109,-0.410198,0.468974,0.273891,0.722264,-0.421289,0.377903,0.427099,-0.609809,-0.090721,-0.021897,-0.637637,-0.819551,1.176816,0.177708,-0.651941,0.020601,0.826985,0.688600,0.989506,-0.672044,0.372604,-0.484488,0.657615,0.084116,0.335017,-0.334908,-0.906583,0.427253,-0.906236,0.725694,0.948981,-0.952095,0.873429,-0.257014,-0.112224,-0.736241,0.483551,-0.972001,0.663256,0.001947,0.679455,-0.766623,0.031588,0.343257,-0.108485,0.012125,-0.752077,-0.361109,-0.154229,0.419692,0.663272,0.403691,-0.859344,0.461443
-0.751723,-0.171763,0.309235,-0.522595,0.872624,-0.569927,-0.543972,-0.351577,-0.023613,0.756694,-0.169522,0.048016,-0.459677,0.133329,0.185658,-0.069739,0.140272,0.665724,0.000233,-0.102943,0.746683,0.728035,0.935807,-0.586823,-0.274504,-0.659869,-0.202676,0.854626,-0.761879,-0.161142,0.567168,0.024254,0.072300,-0.784730,-0.642712,-0.347223,-0.160479,-0.915639,-0.418374,0.272169,1.022059,-0.858891,0.548915,-0.644166,0.750705,-0.840341,-0.130113,-0.652899,-0.562041,0.005503,-0.866944,0.784511,-0.482685,-0.686645,-0.631647,-0.498248,-0.890679,0.436096,-0.590694,-0.394521,0.340189,-0.698717,-0.705820,0.697066,-0.874539,-0.787786,-0.273953,0.362897,0.573589,-0.755960,-0.289604,-0.198922,0.973906,-0.131882,0.688817,-0.716451,-0.697279,-0.687532,0.218624,-0.564028,0.933595,-0.692614,-0.332808,-0.300783,0.434727,-0.944749,-0.244359,-0.884778,0.110772,-0.965651,-0.608877,-0.168676,0.618300,-0.238875,0.022316,-0.835648,-0.286552,0.301898,0.734998,-0.311317,-0.041514,0.156753,-0.122034,1.352854,1.090883,0.286709,-0.423592,-0.578687,-0.299272,0.364089,0.764665,0.598429,-0.296226,0.973506,0.419803,0.788101,-0.470213,-0.732543,-0.598095,0.334057,-0.731518,-0.689024,-0.449396,-0.203001,-0.156111,0.322863,0.252607,0.061002,0.836784,0.206579,1.159330,1.378412,0.780610,0.626821,1.154553,0.188528,-0.875064,0.712898,-0.479288,-0.987175,-0.758614,-0.207159,0.622101,-0.221974,1.031062,0.357505,0.200011,-0.336308,0.638301,0.781654,0.077218,0.367209,0.319728,-0.290243,0.574632,0.222065,0.772022,-0.266879,-0.785297,0.947934,0.636923,0.496535,0.019305,-0.138566,-0.974185,0.286250,-0.805205,0.711755,-0.781925,0.157213,-0.455847,-0.024488,-0.201733,-0.461834,1.206752,0.008500,-0.495309,-0.297205,-0.830415,-0.097135,0.671288,0.544881,-0.336799,0.698182,-0.557281,-0.650570,-0.100629,-0.350754,-0.214288,-1.095947,-1.309907,0.260264,-0.564055,0.795261,-0.345072,0.882079,-0.770750,0.169384,-0.372758,-0.554113,0.600017,-0.201876,0.003721,0.363518,0.675358,-0.464547,-0.468631,-0.281707,-0.951409,-1.325888,-0.427654,-0.545478,-0.975347,-1.354626,-0.954263,0.261161,-0.255492,-0.602324,-0.108878,-0.940167,0.075461,-0.608871,-0.895956,-0.800233,0.141061,0.572939,-0.787448,-0.645064,0.445177,-0.330276,0.790195,-0.838146,-0.112231,-0.477724,-1.322775,-1.179080,-0.965266,-0.861328,-0.943964,-0.612600,-1.048373,0.649998,-0.428046,-0.961192,-0.731334,-1.515151,-0.724236,-1.054913,-0.909905,0.724780,-0.047749,-0.242783,-0.713870,0.830540,-0.705177,0.991338,-0.418457,-0.764924,0.653894,-0.042777,-1.607514,-1.736371,-1.538944,-1.384578,-0.224129,0.157792,0.892424,-0.359369,0.537418,-0.738257,-0.393995,-1.117242,-1.478816,-1.502175,-1.480206,-0.744160,-0.979901,-0.359602,-0.554284,-0.785257,-0.622461,-0.074000,-0.420710,-0.860122,0.448256,0.578821,0.715881,-0.088296,-0.951312,-0.681818,0.174455,-0.020170,-0.100727,0.311024,0.984929,1.735879,0.794819,0.215715,-0.123774,-1.322331,-1.055560,-0.985604,-0.818812,-1.203101,0.170966,-0.852105,0.658753,-0.928027,-0.610328,0.551660,0.829566,0.332259,0.149782,0.606244,0.586697,0.177270,0.258249,0.167631,0.404020,1.359160,1.669941,1.685130,1.965201,1.230810,-0.929397,-1.090172,-1.202641,-1.561606,-0.053123,-1.405945,-0.443138,0.213927,-0.546095,0.355339,-0.007778,0.723622,-0.798809,0.205278,-0.044149,0.103909,0.669150,0.365127,-0.816761,0.658869,0.585415,0.158742,-0.028426,0.065822,1.417878,0.108016,1.741381,-0.103202,-0.330858,-1.111597,-1.380339,-1.627860,0.497569,-0.993943,-0.843925,0.979157,-0.773878,-0.571478,0.572361,-0.621338,0.532468,-0.862789,-0.858466,0.941032,0.846055,-0.645237,-0.651327,-0.421879,-0.617728,1.166419,0.923527,0.138445,-0.430379,-0.654962,0.731588,0.529013,-0.663786,-0.914247,0.750370,0.655135,-0.291017,0.271157,-0.165996,0.696318,-0.018802,0.485339,-0.552620,0.161828,-0.732190,0.811960,-0.331887,-0.580447,0.345681,-0.512029,-0.243632,0.028057,1.080900,-0.538325,-0.349508,0.161267,-0.764520,-0.259547,-0.693105,0.549619,-0.319517,0.439857,0.122491,-0.407359,0.052016,1.057842,0.302565,-0.058853,-0.675031,-0.445742,0.249470,0.679392,0.858160,0.221215,0.235145,0.570025,0.225990,-0.940232,0.165790,0.103952,0.238945,-0.072515,-0.009309,-1.174991,-0.777557,-0.419884,0.696081,-1.121077,0.362249,0.502170,-0.201118,0.723763,0.758121,0.570194,0.905168,0.444880,0.834852,0.679281,-0.093722,-0.460648,-0.035046,-0.907890,0.468072,-0.033377,-1.124289,0.237573,0.105601,1.030217,0.112149,0.636337,-0.336296,0.922015,-0.489007,-0.335973,-0.129167,-0.028385,-0.756940,-0.071885,-0.808373,0.854539,0.343244,0.080589,-0.429333,0.256719,0.267077,-0.526977,-0.075664,-0.773598,-0.308996,0.588825,-0.263511,-0.445228,-0.285066,-1.622985,-1.102614,-0.551951,0.983954,0.285814,-0.713939,-0.300001,-0.273856,1.217552,-0.393364,0.544938,-1.072213,0.455565,0.258849,-0.897356,-0.879668,1.005963,-0.813255,0.001110,0.692380,0.492299,0.076770,-0.074032,0.668838,-0.357795,0.731376,0.658925,-0.061410,0.188543,0.040429,-0.380234,-0.404795,-0.517620,0.192784,-0.174675,1.085251,0.252711,-0.501238,-0.147673,-0.367229,-0.752877,-0.021781,0.073675,0.721079,0.247025,0.813186,0.584869,-0.989188,0.302124,-0.769170,-0.000211,0.923190,-0.316720,0.175411,0.236792,-0.364801,0.073593,-0.933401,-1.114882,0.082930,0.310201,-0.335209,0.353835,1.026628,0.559959,0.451282,0.068695,1.033704,0.194309,0.166351,0.654408,0.565323,0.790338,-0.406473,-0.319357,0.205996,0.814797,-0.005802,0.008829,0.568036,-0.076683,0.728807,-0.560582,-0.121451,-0.821202,0.181979,0.459599,0.634750,-0.276824,0.832238,-0.375808,-0.427670,0.546336,0.679830,-0.058764,-0.168592,-0.737187,0.969576,1.306146,0.988329,0.286911,-0.801558,-0.686109,-1.030876,0.252567,0.799231,-0.209153,0.469187,0.831332,-0.585722,0.383743,0.564320,-0.481173,-0.941558,-1.327855,-0.386624,-0.642833,0.169598,0.424678,0.235368,0.445869,0.912208,0.295856,0.693717,0.492626,0.508530,-0.134706,0.039249,-0.359534,-0.870739,-0.028945,0.203400,-0.880702,-0.852695,-0.040702,-0.811228,0.227897,-0.137528,-0.889165,-0.404226,0.899042,0.361985,-0.581830,-1.122306,-0.429320,-0.901140,0.476172,-0.938686,-0.668778,0.298626,0.388896,0.315241,0.905906,0.027985,0.875217,0.615595,-1.165079,-0.173863,-0.211564,0.680019,0.676883,-0.431194,-0.919248,-0.339001,-0.629578,0.882439,0.111941,0.028614,-0.539186,-0.947058,-0.392842,-0.106090,0.143000,-0.517175,0.352158,-0.486405,-0.343885,-0.796455,0.901092,0.372115,0.477402,0.376689,0.439184,-0.270403,0.339996,0.386651,0.738035,0.312733,0.241783,-0.201511,0.626946,0.731304,0.848824,0.994949,0.078081,0.250284,-0.077583,-0.448128,0.827025,-1.088835,-0.759805,0.101744,-0.637271,0.642778,-0.190047,-0.105289,-0.380371,0.061474,-0.353802,-0.916753,-1.071306,-0.507315,-0.633886,-0.844339,0.047739,0.998528,0.528882,0.826468,0.081986,-0.288022,-0.155601,-0.277734,0.319780,-0.578179,-0.178377,-0.122199,0.926875,0.725642,-0.422947,0.586477,0.604238,0.859443,-0.428931,-0.502923,0.408541,0.234925,0.424458,0.803638,-0.692076,0.054952,-0.020528,-0.534760,-0.250370,0.480386,0.146841,-0.366724,0.468309,-0.054622,0.761804,-0.556113,0.854384,0.369097,-0.641363,0.071395,0.569151,-0.673893,-1.016126,-0.164413,0.948357,0.404932,-0.928041,-0.551388,-0.411216,-1.018249,0.016836,0.431066,-0.951765,-0.924048,0.133715,0.347873,0.610347,0.574884,-0.555787,0.454426,-0.609050,-0.296466,0.948896,0.264162,0.412598,0.993997,-0.176446,-0.228075,0.058305,-0.719741,0.511101,-0.609256,-0.195177,-0.204806,0.255407,0.507702,-0.654772,0.903837,0.744414,-0.131688,0.824349,0.671231,0.312847,-0.606062,0.962842,-0.506602,0.789879,-0.011486,0.451326
-0.922556,0.882288,0.085601,-0.762199,0.539891,0.064606,-0.141075,-0.079684,0.306979,0.916259,0.587970,0.933412,-0.987916,0.736445,0.500405,-0.474599,-0.898282,-0.293289,-0.732910,-0.484873,0.416030,-0.190047,0.952683,0.941531,0.524904,-0.819096,-0.190935,0.803408,-0.424605,0.734198,0.478598,-0.405766,-0.674637,-0.227877,-0.382266,-0.927169,-0.135801,-0.862524,-0.033237,-0.623325,-0.284727,0.736232,0.954818,-0.043084,0.872713,-0.449540,-0.862109,-0.428720,0.323477,0.040312,-0.352245,0.601617,-0.248580,0.059553,-0.479663,-0.043080,-0.366522,0.353141,-0.420892,-0.568594,0.668193,-0.786664,0.049911,0.810901,-0.574449,-1.022851,0.469470,-0.952110,0.771648,-0.223069,0.280994,-0.972223,0.071255,0.089887,-0.116250,-0.025851,0.002872,-0.253897,0.165498,0.427492,0.347887,0.833883,0.651580,0.421590,-0.026081,-0.013727,0.823978,0.592759,-0.941571,-0.344000,0.834015,0.161397,0.638788,-0.077040,0.879151,0.640582,0.975828,-0.590496,-0.158083,-0.172678,0.048660,-0.152831,-0.001281,-0.392531,0.714723,0.611535,1.013707,-0.569242,-0.395652,0.136764,0.570031,-0.857005,0.805064,0.171233,0.289685,-0.022946,0.926595,-0.074982,0.312855,-0.811211,-0.679941,0.548505,0.754170,-0.655832,-0.320500,-0.611520,-0.569512,-0.305999,-0.210058,0.630766,0.208471,0.173799,-0.026825,0.426936,0.339035,0.364893,0.667243,-0.479291,0.874606,-0.413359,0.922925,0.103997,0.220400,0.013492,-0.675337,0.681485,0.232797,-0.720598,-0.305495,-0.705900,-0.301499,0.780667,0.208024,0.854274,-0.022484,-1.320420,0.407697,0.516281,0.890520,-0.354296,-0.008358,-0.456412,-0.837261,-1.244344,0.329230,0.406154,0.200398,-0.905792,0.321256,0.761080,0.281465,0.035432,-0.097583,0.530896,-0.309685,0.533803,0.458786,1.611357,-0.251857,-0.219085,-0.072448,1.481744,0.565168,-0.292607,-0.312100,0.740184,0.213813,0.374802,-0.217912,0.359610,-1.096103,-0.988746,-0.819875,-0.424302,0.578032,-0.421106,-0.153740,-0.521442,0.931354,-0.769602,0.483846,0.536151,-0.757011,0.499443,-0.245328,0.871783,1.308156,0.628679,0.939910,-0.521507,0.162182,-0.559979,0.567550,0.800246,0.757640,1.312067,0.592386,-0.708097,0.362807,0.316677,0.301857,-0.097972,-0.456519,0.406874,-0.168134,-0.001746,-0.731065,0.648952,-0.036445,0.973708,-0.937350,0.597670,0.125020,1.228123,1.232771,-0.020159,0.881156,0.791225,0.031286,-0.345046,0.453303,0.179734,0.863635,0.424757,1.178017,0.514563,0.211965,-0.566705,-0.905425,-0.344161,-0.596976,0.024405,-0.443436,0.821374,0.291374,-0.512115,0.321930,-0.783254,1.154666,0.496120,0.686709,0.290456,0.186642,0.293833,0.568599,-0.223359,-0.592676,-0.627360,0.661012,-0.321140,1.399344,1.765589,0.061017,0.664468,0.271663,-0.018623,0.355814,1.002532,0.790362,0.012111,0.958390,0.710140,0.818822,-0.718986,1.195858,0.885187,-0.016031,-0.457909,0.100134,-0.082937,0.798439,1.153519,0.207016,0.189963,-0.917177,0.458559,0.728616,0.086571,0.714509,-0.118686,0.768863,0.613827,-0.416298,0.927849,-0.589333,-0.319532,-0.542123,-0.360203,0.244754,0.979671,-0.845248,0.541358,0.534534,-0.681787,-0.507043,0.796257,-0.271118,-0.383228,0.385731,1.324007,0.034036,-0.661752,-0.629723,-0.253057,-0.020956,0.209925,0.425556,0.756461,-0.180991,1.169413,-0.918109,-0.152325,0.043809,-0.611781,0.068707,-0.267080,-0.225477,0.555771,0.747893,-0.307287,0.599933,-0.407874,-0.029401,0.034085,-0.062378,1.262289,1.180690,0.728961,0.613684,0.899726,1.160691,1.565775,0.015128,1.371278,0.168081,1.142120,0.572245,0.483604,0.426508,0.597727,-0.771304,-0.362988,0.774902,0.287453,0.255678,-0.384754,-0.878333,-0.257432,-0.101378,0.029067,0.637555,0.065572,-0.145736,-1.192552,0.260847,0.829642,-0.860921,-0.185810,0.065284,-0.006653,0.280987,0.862590,0.277506,0.754999,-0.056975,-0.747715,-0.366607,0.005961,-0.057493,0.968927,0.990393,-0.204954,0.165046,-0.618323,0.468204,0.670613,-0.118680,-0.597562,-0.266941,-1.199487,-0.287827,-0.930755,-0.258581,0.272295,-0.094975,-0.859633,0.682947,0.613781,-0.487147,-0.094803,0.055262,0.935046,0.785335,-0.396795,-0.206256,-0.429844,0.290489,-0.634997,0.669467,-0.256223,-0.095870,-0.679011,-0.554531,0.549550,-0.179091,-0.954696,-0.918672,-1.382133,-1.318217,0.280376,-1.257993,-1.288846,-0.777919,-0.233292,-0.315004,-0.200891,-0.226422,0.989417,1.305615,-0.378083,0.036460,-0.538771,0.037634,0.006388,-0.784330,0.059724,0.132636,-0.752189,-0.695483,-0.579634,0.808419,1.012033,0.360281,0.584881,-1.256162,-0.084147,0.100575,0.019001,0.154270,-0.719385,-0.862030,-0.779022,-1.155196,-0.051483,-1.062486,0.260007,0.125417,0.901458,-0.505541,0.112581,-0.528032,-0.203076,-0.576992,-0.413902,0.198233,0.469323,-0.195667,0.178941,0.080273,-0.737665,0.252243,-0.121601,-1.307960,-0.929687,-0.838418,-1.253449,-0.327646,-0.359967,0.120221,-0.863386,-0.829288,-1.389287,-0.495729,-0.434724,0.493640,-0.931486,-0.572426,0.178358,0.250667,-0.850684,0.023142,0.222214,-0.354883,-0.621166,0.151471,-0.266208,-0.198646,0.246452,0.609613,-0.254916,-0.455728,-0.368498,-0.060609,-0.945557,0.739496,0.284794,-0.470805,-1.288558,-0.776494,-0.506764,-0.454735,-0.593385,-0.380513,0.783978,-0.627972,0.478785,0.469328,-0.139170,-0.854197,-0.366547,0.217596,0.472542,0.430982,-0.996092,-0.735718,0.826983,1.153425,0.808932,-0.104113,-0.165728,-0.704752,-1.496355,0.668509,-0.190620,-0.902685,-1.736749,-0.577578,-1.741149,-0.527103,0.751196,0.178648,0.457028,-0.664026,0.134816,0.537845,-0.699514,-1.153426,-0.613581,-0.454290,-0.543916,-0.880076,0.716405,0.436540,-0.653913,0.865248,0.301845,-0.956869,-0.697699,-1.448462,-1.258571,0.327501,-1.082927,-0.624877,-1.845190,-1.072722,-0.640573,-1.152624,0.629119,0.443934,-1.012673,-0.975634,0.640320,0.399044,-0.965126,-0.377056,0.720660,0.444953,0.592632,-0.868061,-0.034114,0.171504,-0.165353,0.784529,0.030005,-0.446219,0.449588,-0.477402,-0.137615,-0.695157,-0.491567,0.120009,-0.853177,-0.064277,-0.350052,0.094443,-0.448317,-0.486564,0.063247,-0.624731,-0.016162,0.018278,0.317229,0.227270,0.855835,0.131605,0.555358,0.784926,-0.510629,-0.786063,-0.472754,0.405476,-0.809067,-0.535776,-0.309683,-0.554756,0.403452,0.382929,-0.325642,0.782266,0.084732,1.475855,-0.659372,0.120012,-1.121285,-0.878259,-1.180628,0.506980,0.117583,0.704866,0.895064,-0.310508,0.611453,0.862005,-0.353214,-0.634010,0.880559,-0.017529,-0.397967,0.762648,0.540393,-0.386152,-0.698766,1.093514,1.145471,0.846556,1.342874,1.318038,2.341903,2.254266,0.194506,1.193969,0.157185,0.825589,0.342824,1.011347,0.607502,-0.474117,-0.702230,-0.580083,-0.284937,0.489487,-0.518344,0.968032,-0.282300,-0.924126,-0.854871,-0.272949,0.497001,0.606853,0.492745,1.442476,1.628007,0.247078,1.633381,0.370267,0.636862,0.444401,1.571811,0.521145,-0.127752,1.174253,0.132771,0.184916,1.085606,0.715087,0.824838,0.277973,0.033944,0.379965,0.525876,0.476069,0.122356,-0.265926,0.982110,-0.377144,0.531855,0.734972,0.174375,0.104140,0.653645,1.044201,1.071788,0.374559,0.055248,1.050138,0.160616,0.110380,0.238253,1.163094,-0.101066,-0.032056,-0.207642,0.741649,-0.338204,0.779788,-0.393668,-0.125398,0.540829,-0.224082,-0.333864,-0.919171,0.101358,-0.492970,0.801330,0.385437,0.335358,-0.799110,0.619328,0.537949,-0.422293,-0.479012,1.003009,-0.650888,-0.380226,0.627927,0.014050,1.139259,-0.187207,-0.197277,0.295754,-0.290838,-0.173672,-0.999597,-0.253301,0.769915,-0.629344,-0.798812,0.013451,-0.705474,-0.448794,-0.175604,-0.843765,-0.439980,-0.863599,-0.127741,-0.195295,0.690842,0.793187,-0.154102,-0.347430,0.120230,0.723909,0.527988,0.918272,-0.141928,-0.148438,-0.482475,-0.509489,-0.630199,-0.301951,-0.981684,0.016721,-0.616492,0.473820
0.308625,0.209691,0.095742,0.743583,0.025566,-0.600199,-0.494551,0.102005,-0.418431,-0.651321,0.675991,-0.148325,-0.026523,0.470753,-0.511755,-0.009040,-0.160202,-0.917758,-0.363622,-0.164008,-0.898526,-0.738838,-0.319037,-0.876872,-0.974704,0.264770,0.325832,-0.670728,-0.862714,0.184454,-0.167058,-0.620899,-0.866583,0.819429,0.049778,-0.704027,0.502123,0.222595,0.336217,0.747241,0.580428,0.591615,0.429810,-0.851653,-0.269883,0.339757,-0.969353,0.527035,0.240813,0.221314,-0.250988,-0.372822,-0.699265,-0.511527,0.069091,-0.872415,-0.997967,0.919556,0.842562,0.726832,-0.987984,0.029336,-0.325067,-0.138974,0.568160,0.233013,0.642953,-0.347737,-0.241135,0.708159,-0.496358,-0.134702,0.152611,-0.325540,-0.684559,0.283613,-0.502226,0.182849,-0.211641,-0.120251,-0.511397,0.522704,0.813873,-0.227750,-0.794149,-0.315960,0.897898,0.721811,-0.361896,-0.808423,0.702446,0.440637,-0.255125,0.391285,0.098301,0.210084,-0.658298,0.402791,-0.148269,-0.871523,0.242268,-0.377663,-0.473145,-1.114933,0.753546,-0.758104,-0.746659,-0.074794,0.774702,-0.192155,-0.890785,0.177228,0.165325,0.045902,-0.477733,0.532630,0.546929,-0.778763,-0.506043,-0.761082,0.692625,0.089207,-0.397631,-0.676515,0.178633,-0.844060,-0.238353,-0.740592,-0.393008,-0.406463,0.459056,-0.831013,0.636914,-0.131168,0.550635,-0.866607,0.475081,0.971161,0.110182,0.049719,-0.451455,-0.808348,0.629792,0.258127,0.491073,0.189720,-0.043456,-0.517305,-0.775075,-0.171968,0.350958,-0.098584,-0.799994,0.632583,0.380505,1.104057,0.679594,-0.066210,-0.174614,-0.140185,0.563493,-0.555550,-0.322685,-0.642746,-0.622745,0.373791,-0.985727,0.557416,-0.025330,-0.623743,-0.431699,-0.741608,0.698597,-0.707689,1.213341,1.046544,-0.423820,-0.455422,0.643689,0.031949,-0.178535,0.085660,-0.750287,0.357029,1.157321,1.121690,-0.047996,0.237307,-0.650014,0.719078,-0.285230,-0.997313,0.185963,-0.588572,-0.432431,-0.470704,-0.081657,-0.028667,0.982257,-0.323258,0.411434,0.885356,0.626739,0.955394,1.174354,0.708746,0.544106,-0.175882,0.773829,-0.539028,-0.254648,-0.223586,-0.626492,-0.887113,-0.103103,0.263607,-0.363617,0.783969,-0.101934,-0.578936,-1.041921,-0.329076,-0.688481,-0.287894,-0.500920,0.822077,0.231242,0.536266,-0.467298,0.403287,0.438388,0.216963,0.435520,-0.192504,0.014819,-0.244370,0.544484,0.786838,-0.303926,-0.568078,0.034430,-0.810189,0.428899,0.139239,0.662150,-0.557766,0.657696,-0.140113,-0.843349,-0.573262,0.511425,-0.363020,-0.311258,-0.114375,-0.642694,-0.074966,-0.267049,-0.574467,0.084016,0.485951,0.332634,0.511295,0.194619,0.671014,-0.133845,0.468700,0.362789,0.397120,0.113010,0.377523,-0.894794,-0.810915,0.613251,-0.286596,-0.401735,-0.105600,-0.055997,0.148375,0.321493,-0.910513,-0.886333,-0.795087,0.697763,0.009459,0.176975,-0.481040,0.632558,-0.160627,0.480573,0.237708,0.666925,1.211589,0.183847,0.561903,-0.857280,-0.769979,0.160365,0.679153,0.483143,0.905755,-0.936705,0.058350,-0.080246,-0.400979,-0.817085,0.512436,0.765886,-0.917829,-0.875653,0.638328,0.982538,-0.691980,0.176289,-0.486439,0.057784,-1.128079,0.472946,-0.512184,-0.752340,0.681749,0.085775,-0.502941,-0.020402,-0.635072,-0.219143,-0.198035,-0.091879,0.121733,0.627331,-0.682998,-0.353267,-1.153939,0.517978,0.561103,0.149291,-0.619042,-0.565476,0.916347,0.568298,-0.355084,-0.590349,0.067118,-1.019160,-0.684084,0.072994,-0.582713,-0.570052,-0.750271,0.305031,-0.393378,-0.742351,-1.172843,0.341858,0.496116,0.654472,-0.560345,0.081516,-1.161908,-0.310312,0.430937,0.490358,0.134205,-0.207800,0.363350,-0.046340,0.286935,-0.368074,-0.057891,-0.591706,-0.847039,-1.158380,-1.475711,-0.624231,-1.410245,-1.070184,-0.647882,-0.737213,-0.575454,-1.213944,-0.461523,0.440216,0.360204,0.045961,-0.752123,-0.725523,0.389735,-0.097964,-0.049695,0.198687,-0.116295,-0.111516,-0.157135,0.766699,-0.076839,-0.792360,0.406911,0.558195,-0.611274,0.404220,-0.863838,-0.875491,-0.073764,-1.241222,-1.506195,-1.141656,-0.774519,-0.552298,-0.946210,0.064333,-0.014706,-0.879232,-0.026061,-0.010113,-1.048338,0.414966,-1.129248,0.514592,-0.528765,0.536325,-0.926027,0.234022,-0.309971,-0.809624,-0.033901,-0.400175,0.241655,0.115992,-0.175469,0.022799,-0.334295,-1.673164,0.230412,-0.443553,-0.170622,-0.065446,-1.118453,0.390919,-1.144596,-0.377743,-1.168147,-1.013606,-1.136154,-0.371953,-1.353399,0.304813,-0.072551,-0.347230,0.507663,-0.301618,-0.274110,0.733783,-0.227334,-0.534216,-0.743494,0.312952,-1.477265,-0.966752,-1.496071,-0.393265,-0.400082,-0.162878,-0.490918,-1.620329,-0.206127,-0.156646,-1.036767,-1.240574,-0.497213,-0.610683,0.530720,-0.520035,-0.366844,-0.007386,-0.453862,-0.950699,-0.072708,0.460090,0.356577,-0.397651,0.545227,-0.037105,-0.735115,-1.393292,-1.757789,-0.602796,0.001621,1.444848,-0.010765,0.860269,-0.364476,-0.300151,-0.336065,0.556546,-0.129646,-1.597167,-0.428394,-0.216742,-1.047449,0.408344,-0.039918,0.328326,0.935152,-0.075633,0.064297,-0.738221,0.347875,0.212871,-1.004931,0.483552,-0.843546,0.207090,-1.455863,-0.567147,0.638164,1.418845,0.865714,0.422883,0.318781,0.167566,0.599037,0.212502,0.242109,0.562288,0.370261,-0.033588,-0.613330,0.880136,0.390710,1.095055,-0.022905,-0.722531,0.513475,-0.519832,0.515026,0.599005,0.231380,0.677303,-0.869181,-1.017365,0.039694,-0.535091,0.296498,0.592327,0.822639,0.700456,0.003540,0.479565,0.380493,1.188275,-0.489821,-0.669040,-0.262625,-1.016495,0.688749,0.152043,0.220981,0.433514,0.502761,0.525566,-0.660945,-0.092173,0.469318,-0.311001,1.030237,-0.531632,0.434392,-0.262192,-0.148636,-0.256261,0.492497,0.213955,0.388803,0.504695,0.434503,-0.773321,0.318205,-0.010167,0.959197,0.882202,0.432816,0.603911,0.775053,0.492061,0.213283,-0.195094,0.480589,0.210579,-0.770765,-0.480450,0.854094,0.935909,-0.182340,-0.291123,0.436459,-0.688003,0.075154,-0.580758,-0.751187,0.366664,1.025582,-0.310004,0.005195,0.240790,-0.870493,1.019790,0.519036,0.608475,-0.525461,-0.160904,1.099999,0.546000,1.083147,0.673257,-0.887098,0.917021,0.287186,0.991574,0.666889,-0.581235,-0.667951,-0.085709,-0.240170,-0.411780,-0.418087,-0.616834,-0.049712,0.608554,-0.426126,-0.012844,0.231092,-0.272973,0.740270,0.185027,0.715198,0.602106,0.368137,0.519731,1.052433,0.558139,0.415650,0.115491,-0.948751,-0.995519,0.023583,-0.697432,0.177470,0.648150,0.203366,-1.032578,-0.444954,-0.910829,0.937902,-0.551840,-0.069914,0.165961,0.100237,-0.495225,-0.672386,-0.215723,-0.634084,-0.163536,-0.117536,1.470749,-0.102515,0.200750,0.720295,0.112168,0.916173,0.973684,-0.374851,-0.949431,-0.039905,-0.792314,0.611795,-0.032066,0.249101,0.765173,-0.469350,-0.360828,-0.742590,-1.272010,0.483458,-0.777186,-0.104415,-0.666228,0.074254,-0.881514,-0.078247,0.229779,-0.267684,-0.305838,1.352845,-0.487310,0.717577,0.466625,0.308235,0.595167,-0.086657,0.076309,0.511229,-0.378663,0.588304,-0.333444,-0.954466,-0.177368,0.395113,0.538600,-1.160853,-0.396794,-1.117286,-0.753990,-1.107987,0.170445,0.175511,-1.089318,0.384332,-0.379496,-0.035919,-0.658645,0.168108,-0.678542,0.545393,-0.253568,-0.381491,-0.196612,0.454361,0.587866,-0.639552,0.393529,-0.146106,-0.563599,0.126962,-0.873096,0.280773,-0.969069,-0.405122,-0.217674,-0.575143,0.005372,-0.143793,-0.696108,-0.846736,0.623099,-0.130954,0.802679,-0.607321,-0.217244,-0.891138,-0.289882,0.526620,0.384974,-0.893148,0.190085,-0.260055,0.574360,-0.799677,0.463863,-0.442181,0.432784,0.301430,0.855386,-0.073481,-0.237032,-0.123991,0.328978,-0.838814,-0.754917,-0.511919,0.938116,0.679547,0.741362,-0.076360,0.557304,0.813487,0.867918,-0.973412,0.625356,-0.842780,0.722425,-0.342703,-0.723202,-0.306453,0.384842,-0.355594
0.056437,0.693463,-0.590481,-0.481192,-0.543229,-0.053610,0.921404,-0.983800,-0.154290,-0.555413,-0.325551,-0.009573,-0.107728,-0.615438,0.911444,0.471594,0.427361,-0.911266,-0.093013,0.923741,0.401328,-0.344864,0.011765,-0.836641,-0.066918,-0.934170,0.873833,-0.133131,0.420213,-0.920816,-0.113177,0.125372,-0.583480,0.279061,-0.289652,0.062621,-0.936359,-0.223007,0.432485,-1.026653,-1.022901,0.593267,-0.194281,0.620145,0.787382,0.735819,-0.322664,-0.669138,-0.644591,-0.151740,-0.185825,-0.814833,0.021814,-0.965332,0.247247,-0.008818,0.953764,-0.470364,-0.949878,-0.468924,-0.068575,-0.467607,0.496857,-0.354031,0.906328,-0.589173,-0.674489,-1.151486,0.560649,-0.880295,-0.574381,0.222539,-1.006940,-0.799603,0.276909,-0.047928,0.688668,-0.754499,-0.937784,-0.306331,0.910389,-0.464843,-0.322522,-0.849860,0.205907,-0.814840,0.741389,0.729497,0.566303,0.326074,0.184874,-0.357919,-0.433051,-0.094943,-0.268058,-0.379291,-1.269715,-0.670868,-0.082961,-1.366857,-0.021413,-1.044393,0.120524,-0.188326,0.425086,-0.458242,0.347079,-0.524535,0.587838,0.711588,0.779786,0.740056,-0.675539,-0.429790,0.331385,0.201459,0.858722,0.202386,0.047754,-1.398778,0.074487,-1.860906,-0.620838,-0.041686,-1.080011,-0.289017,-1.226323,0.098739,0.483625,-0.224215,-0.622963,-0.287931,-1.079627,-0.424398,-0.761523,-0.370909,-0.766653,-0.110143,0.744993,0.219780,-0.938066,0.604271,0.302030,-0.708837,-0.535096,0.052885,-0.744574,-0.580708,-0.235551,-0.683975,-0.312854,-0.227545,0.198511,-0.610690,-0.086873,-0.365629,-0.314427,-0.597441,-0.528425,-0.491438,-1.418460,0.852812,0.755687,0.278492,-0.597554,0.786960,-0.854379,0.948235,0.451049,0.646343,-0.366713,-0.929977,0.821485,-0.829131,-0.527193,0.223845,-1.128066,-0.585297,-0.546801,0.196241,-0.735974,0.357364,0.429065,0.880380,0.162606,-0.219218,-0.281120,-0.777095,-0.231154,0.290903,-0.092161,0.930780,0.110253,-0.833108,0.756384,-0.807451,-0.393643,-0.368824,0.239293,-0.611733,0.099990,0.453243,-0.105630,0.031343,-0.382764,-0.575306,-0.019296,0.283858,0.548920,0.257316,-0.647802,0.691041,0.250208,0.045693,0.499423,0.087542,-0.273073,0.690630,0.655984,0.940883,1.082855,0.255297,0.495581,-0.364789,-0.087308,-0.020728,-0.144744,-0.331469,0.413015,-0.611804,0.182232,0.435298,-0.111623,0.067688,-1.010323,-0.695322,-0.407856,1.417285,0.142571,0.309467,1.325182,1.979059,0.857785,1.279703,0.480810,1.002796,0.313426,1.429099,1.220237,-0.608096,0.544900,0.718539,-0.496142,-0.048211,0.660911,-0.009362,0.620710,0.123863,-0.097083,-0.629205,-0.429927,-0.012031,-0.379512,0.673571,0.603692,1.077791,-0.552261,1.082033,1.094212,0.982980,1.010725,0.486658,0.341686,1.308677,0.507523,0.507474,-0.271379,-0.848006,-0.680975,0.254837,0.777374,0.073754,-0.739170,0.944118,-0.659458,0.268966,-0.054484,-0.471236,-0.196531,1.212485,1.129075,0.597314,0.379345,0.953734,0.750374,1.227933,1.216460,0.868408,1.601303,0.835951,0.767983,0.231484,1.715783,0.240655,-0.626711,0.094132,-0.854329,-0.925438,0.891006,-0.658933,-0.519479,-0.104849,-0.634117,0.404735,0.416369,0.825367,1.046697,1.353202,1.135912,0.231521,0.455613,-0.385335,-0.066467,0.196217,0.705300,-0.454830,-0.419160,0.489506,-0.232117,0.526389,0.349798,1.137333,0.998422,-0.096185,0.376854,0.975553,0.998879,-0.246525,-0.772431,-0.444145,0.709169,-0.515279,0.608483,1.229945,1.827429,-0.140291,0.894896,-1.311742,1.001779,-0.264446,0.639856,-0.503693,0.100220,-0.098340,0.580497,0.173759,0.497744,-0.178630,0.520881,0.930573,-0.938208,-0.342631,0.301894,-0.129903,-0.997303,-0.499428,0.004010,-0.195598,1.110177,1.146388,1.402382,1.091850,0.397721,0.625493,0.244998,-0.393680,-0.432133,-1.526125,-1.371486,0.124476,-0.201600,0.503022,0.122107,0.770100,-0.737184,-0.265953,0.328773,-0.314734,-0.747669,0.911748,-0.668136,0.548545,0.906303,-0.385724,0.906043,0.775985,-0.208074,0.805008,-0.457487,0.404797,0.166301,-0.663833,0.429793,-0.520035,0.367447,0.003192,-0.894603,-0.669590,-0.276506,0.769996,0.969408,0.131737,0.685177,0.483174,0.010508,0.635479,-0.952842,0.029479,0.615461,-0.483759,0.767528,0.752816,0.826302,-0.198318,0.387982,1.443562,1.213561,1.062205,1.047539,0.495341,-0.626234,0.800901,-0.241110,-0.643676,-0.019799,-0.743793,1.005045,1.078316,-0.629166,-0.346261,-1.083960,-0.415478,-0.031569,0.338898,0.714349,-0.991870,-0.282424,0.983432,-0.500929,0.360327,-0.547368,0.303649,0.344296,0.093482,0.720199,0.540279,0.370049,0.457819,-0.464512,0.524786,0.643151,-0.290658,-0.674323,0.486096,0.407935,0.952067,-0.307987,-0.992487,0.574196,-0.694221,0.380567,-0.571807,-1.294977,-0.553745,0.623661,0.309728,-0.501028,-0.066652,0.760882,0.264381,-0.704590,-0.458787,-0.513151,1.422215,0.341815,0.558323,0.527624,1.257455,1.376941,1.589198,0.055961,-0.221534,-0.596924,-0.157451,0.249769,0.026471,-0.744897,0.296601,-0.958616,-0.645826,0.200414,-1.145838,0.008367,-0.463177,-0.354404,-0.278434,0.852011,-1.113167,-0.291093,0.009809,0.245862,-0.482483,0.389954,0.124046,0.210068,0.333703,-0.203960,1.090955,-0.276457,0.437501,-1.470908,-1.178594,-1.210778,-1.279028,0.476998,-1.382226,-0.405304,-0.119773,-0.713027,-0.507066,-0.566766,0.886426,0.790893,-0.502066,0.826030,0.361120,0.263320,-0.994054,-0.128124,-0.909597,0.117286,-0.535180,-0.209679,-1.443060,-0.586410,0.107749,0.580984,-1.285611,-0.927693,-1.179263,-0.470641,0.272304,-0.994601,-0.609148,-1.256424,-0.071053,-1.016722,0.812269,-0.078715,-0.577049,-0.312243,-0.189298,-0.512655,0.308285,-0.658873,-1.332458,0.847767,-0.061083,-0.919728,-0.530290,-0.789016,-1.923200,-0.202443,-1.148852,0.047114,-0.283963,0.490431,-1.036302,-1.878609,-1.181948,0.072778,-0.601403,-0.012418,-0.822264,-0.440429,0.096957,0.414373,0.487973,-0.322966,-0.977911,-0.450196,-0.086643,-1.168932,-0.179347,-0.921398,-0.690974,0.010561,-1.229620,-1.602333,-0.745628,-1.570834,-0.792924,-0.097602,-0.101827,-0.781466,-1.210540,-1.350720,-0.285602,-1.754700,-0.470427,0.442929,-0.581886,0.851261,-0.520065,-0.958019,0.278833,0.925420,0.464099,0.338951,0.021600,0.523246,0.281523,-0.685437,-0.361710,-0.711654,0.460990,-0.868350,0.908618,-0.853719,0.015810,-0.557817,-0.321481,-0.152880,-1.385737,-1.095344,-0.661650,0.264770,-0.417944,-0.765168,0.438847,0.240157,-0.820512,-0.934507,0.274389,0.960996,0.786067,0.035630,0.312405,-0.613441,-0.332771,-1.067142,0.660361,-0.479092,0.442935,0.622095,-0.563215,0.050042,0.727926,-0.055975,0.381456,0.502747,0.849864,0.023387,-1.176365,0.599300,-0.568587,1.105378,-0.224329,-0.857105,0.732083,-0.527722,-0.509925,-0.708117,-0.591678,-0.328474,-0.650875,-0.517892,-0.956125,-0.207906,-0.600698,-0.201035,-0.123290,0.792170,0.842328,0.256886,0.790049,0.821446,0.121261,1.000806,0.759750,1.089666,1.221624,-0.638382,0.558232,-0.315237,0.778207,0.492129,-0.691937,0.767685,0.284165,-0.021270,-0.849663,0.556399,-0.053742,-0.019138,0.709389,0.786532,0.479007,-0.338349,-0.010975,0.841584,-0.366345,0.113166,-0.884124,0.046159,-0.761263,0.055886,-0.193818,-0.690939,0.399654,-0.196606,0.596754,0.756828,-0.297417,0.156637,-0.351160,-0.952782,0.350165,-0.246297,-0.989379,0.742285,-0.690604,0.226038,-0.512278,-0.471779,0.291211,0.562524,-0.394359,0.950648,-0.720862,-0.093895,-0.792537,-0.525151,0.686512,0.689492,-0.657332,-0.994247,0.827309,0.947149,-0.358930,-0.744485,0.874386,-0.792562,0.156739,0.102204,0.904780,-0.066881,-0.104040,0.258164,0.885309,-0.266214,0.783576,0.254912,0.016627,0.103258,-0.184152,0.622037,0.467071,-0.769920,0.889636,0.443444,-0.936179,-0.308198,0.645627,0.389701,0.102605,-0.563379,-0.969196,-0.607801,0.640045,-0.090348,-0.317823,0.943199,-0.707838
0.642388,-0.499194,0.653985,-0.647783,0.951829,0.976953,-0.415351,0.652976,-0.845992,0.341686,-0.769341,0.210817,-0.055996,0.855456,-0.381009,0.300763,-0.471948,0.090771,0.333059,-0.460700,0.698132,-0.513459,0.603900,-0.655678,-0.417768,-0.431829,-0.851675,0.676987,-0.590699,-0.433526,0.358986,-0.409212,0.812410,-0.836512,0.354232,0.326761,-0.603080,-0.330492,0.038807,-0.862247,-0.936799,-0.802043,-0.938962,-0.064051,-0.963082,0.309275,0.424476,0.123230,0.041845,-0.936055,0.099138,0.419869,-0.714421,-0.584387,-0.138427,-0.375822,0.486220,0.230873,-0.592745,-0.840552,0.530710,-0.581206,-0.905774,-0.660488,-0.529388,-0.443576,0.703908,0.633389,0.512140,-0.736025,-0.189227,-0.488254,-0.496611,0.181747,-0.652700,0.909344,0.352415,0.819745,-0.947737,-0.980358,0.441376,0.611252,0.383470,0.107184,0.355852,-0.084461,0.552888,-0.171168,0.902244,0.825862,0.992122,0.558834,0.684014,0.190819,-0.725107,-0.301436,-0.184673,-0.730751,-0.467328,0.627509,-0.907572,-0.713632,-0.012344,0.152007,0.603673,0.897093,-0.318751,-0.169923,-0.780988,-0.568959,-0.927798,-0.404492,-0.919403,-0.352668,0.483789,-0.537154,-0.078442,0.733868,0.038428,0.729764,0.261820,-0.606716,-0.467330,-0.422972,-0.605590,0.206680,-0.446840,0.510078,0.517471,0.639814,0.134715,-0.646793,0.711450,0.512696,0.805553,1.179451,0.329964,-0.659330,-0.274172,-0.979269,-0.211771,-0.466751,0.929024,0.921448,-0.663183,1.031716,-0.288217,0.178058,0.665175,0.289074,0.300642,-0.935006,0.715469,0.078848,-1.046390,-0.390206,0.070438,-0.847644,-0.917081,0.500973,-0.186343,1.188940,-0.286339,0.419695,0.750084,-0.796285,-0.636772,-0.943367,0.208200,-0.878877,0.217375,-0.608882,0.122736,-0.160944,0.131870,0.935886,1.127716,0.469554,0.019928,0.504107,-0.206402,0.274395,-0.226618,-0.321577,-0.750133,0.285503,-0.143073,0.558835,1.353917,-0.721130,-0.080509,-0.302369,-0.160029,-0.352802,0.202256,0.291822,-0.319898,0.484152,0.092902,-0.853076,1.020660,0.076873,1.085613,0.610862,-0.283917,0.811740,0.291705,-0.079241,1.143447,-0.094777,0.365742,0.511037,0.013727,0.527517,-0.509516,-0.234131,0.591411,-0.740667,-0.398834,0.462469,-0.054388,0.393489,-0.268294,-0.268093,0.233755,-0.626403,-0.361360,-0.273769,-0.761560,0.002241,1.309615,0.589160,0.615940,0.534622,0.145285,-0.404901,0.148340,1.002134,0.136133,-0.345877,-0.538901,-0.340759,-0.846847,0.806923,-0.442339,0.177640,-0.085164,-0.748836,0.323809,-0.214881,0.069316,0.783137,0.014466,-0.909316,0.939055,-0.035556,-0.502321,0.098830,0.698075,-0.239349,0.006960,-0.578149,0.405353,0.162285,-0.795876,-1.024932,-0.026342,0.845363,-0.067135,1.167370,0.048412,-0.955325,0.303111,-0.198141,-0.386045,-0.243285,1.456498,1.490564,-0.430226,-0.607658,0.359778,-0.127651,-0.063963,-0.613052,0.613749,0.501311,-0.543860,0.561996,-0.062041,0.189768,-0.455331,-1.381330,-0.300286,-0.963630,0.141574,0.515867,0.695166,0.202070,-0.010463,0.152857,0.302696,0.297604,0.747624,0.723022,0.051663,0.151204,-0.649110,-0.768031,0.645992,-0.299930,0.564093,0.447869,1.012570,0.545966,-1.065072,-0.900741,0.696117,0.808409,0.067962,0.626744,0.794716,-0.514036,1.253356,1.905211,0.247402,0.082805,0.608399,-0.612229,-0.177774,-0.814015,-0.622347,-0.215359,0.709094,-0.068795,-0.404623,0.193024,0.375462,0.887202,-0.753946,-0.376523,-0.785281,0.519533,0.514138,-0.115272,-0.098712,0.328697,0.340342,1.215806,1.258466,0.405874,-0.112978,1.511282,0.870219,0.248514,0.361014,0.076339,-1.460647,-0.440140,-1.457374,-0.463640,-0.681418,-0.104020,0.763238,0.708452,0.608824,0.274420,0.650563,0.980760,1.069295,0.742597,-1.193761,-0.314396,-0.220413,0.161756,0.887354,-0.189066,-0.046320,-0.667664,1.227336,1.550762,1.802743,1.286500,1.539120,0.915189,-0.315281,-1.428487,-0.367557,-1.627348,-1.222487,-0.811980,-1.006089,-0.873161,0.231626,0.183861,-0.675532,-0.401621,-0.319772,0.308020,-0.112986,-0.174633,-0.343942,0.183130,0.755524,-0.876277,-1.091469,0.777677,-0.245795,-0.057715,1.809507,-0.064356,-0.255276,0.017683,0.238193,0.997684,-0.885480,0.100781,-0.672772,0.093765,-0.921445,0.784495,-0.245541,0.644287,0.393249,-0.847536,-0.983803,-0.731025,-1.250098,-1.617710,-1.441124,-0.009436,-0.837951,-0.881639,-0.140221,0.844176,0.223574,1.499344,-0.050969,-0.123670,0.004395,1.198226,0.710012,0.324258,0.809100,-0.056985,0.356962,-0.810695,-0.940217,-0.731825,0.659755,-0.525280,-0.233284,0.062690,-0.985197,0.413119,-0.363429,-0.780188,-1.832198,-1.576678,-2.471763,-0.403203,0.327218,0.000237,0.016113,-0.230826,0.619611,-0.438228,0.666923,-0.061287,-0.137080,-0.727256,-0.822918,-0.886319,0.608207,0.661800,-0.112781,0.946396,-0.728541,0.658684,0.353599,0.178105,0.553743,-0.665188,0.552866,-0.448758,-1.989284,-3.106040,-1.222039,-0.765286,0.927021,0.877195,0.512868,-0.330566,-0.772700,-0.412386,0.987713,1.365515,0.132199,-0.405102,0.306814,-0.170819,-1.038441,-0.098514,-0.265963,0.675109,-0.724383,0.642450,0.378210,0.891073,-0.126566,-0.559604,-0.295107,-0.196577,-1.571013,-1.245890,-1.404269,0.788429,2.179207,0.497334,-0.362175,0.781824,0.076524,1.166923,-0.219510,0.361221,-0.606825,-0.471538,0.270834,0.378065,-0.305755,-0.291746,-0.332361,0.481655,0.736233,0.043420,-0.188378,-0.462197,0.566560,-0.001110,-0.818205,-0.322436,-2.246974,-2.782232,0.255317,0.463069,1.198597,0.006486,0.515974,-0.201740,0.126440,0.481268,0.355307,-0.422149,-0.114207,-0.151836,-0.616939,0.318653,-0.131854,-0.860942,-0.492372,-0.554574,-0.219902,0.840412,0.923572,0.251408,-0.411602,0.172138,-1.361896,-0.498388,-1.281999,-1.860474,-0.957379,0.915101,0.618629,1.259445,0.960833,1.070279,0.979523,0.993562,0.707715,0.858729,0.360383,-1.449591,-0.447709,-0.713790,-0.774288,-0.478546,-0.911019,-0.176461,-0.068083,-0.688640,0.422530,-0.294317,0.642689,-0.638973,-1.034866,-0.301260,-0.706022,-0.985832,0.354058,-0.623964,0.362454,0.376684,0.843090,-0.096833,1.167430,0.767736,-0.017169,-0.200535,0.118250,-0.578379,-0.157879,-1.196909,-0.236393,0.354605,0.246253,0.676169,0.273214,0.630306,-0.852207,0.019400,-0.506461,-0.856281,-0.493539,0.168920,-0.786268,-0.715675,-0.170955,0.646454,0.893890,-0.167273,-0.096971,0.713573,1.537342,0.172552,1.021067,0.409414,0.120098,-0.660935,-0.669819,-0.803118,-0.672824,0.807848,-0.762399,0.067397,0.912227,-0.097868,0.466956,-0.067478,0.727418,-0.597024,0.395815,-0.043554,-0.916502,0.500047,-0.727553,-0.202447,-0.319237,1.206698,0.467138,0.685393,0.212405,0.538405,1.405459,0.787538,-0.402982,0.772783,0.615243,-0.016815,-0.001191,0.157417,-0.255636,0.158868,0.085690,-0.995620,-0.046216,0.783588,0.648946,0.314412,0.208142,0.056280,-0.564733,0.304791,-0.168207,0.317808,0.304408,0.037060,0.511169,0.371503,0.385530,0.844550,0.998146,0.443769,1.217080,0.538359,-0.531412,0.723201,-0.545611,-0.048292,0.492944,-0.557395,-0.799018,-0.204119,-0.465712,0.926325,-0.649104,1.025608,-0.698836,-0.605523,0.819445,1.011997,1.138275,1.241446,-0.393311,0.622889,0.238447,-0.380788,0.942273,1.023690,-0.246378,0.284264,-0.342157,0.541483,0.780575,-0.171769,0.064013,-0.225397,-0.663112,-0.534342,0.083165,-0.317120,-0.987255,-0.312731,0.716545,0.934085,0.316968,0.831409,-0.375094,0.557625,0.800847,-0.355649,-0.429768,-0.203535,-0.073531,-0.246442,0.060122,0.557526,0.691448,-0.103704,-0.346834,-0.127115,0.098518,0.567329,-0.221693,-0.914400,0.900853,0.831137,-0.203490,-0.037394,-0.931449,0.413473,0.277732,-0.405110,0.201636,-0.956227,0.262861,-0.470261,-0.848298,-0.346953,-0.563304,-0.366542,-0.764879,0.729809,0.821189,0.753207,-0.329867,-0.241360,0.673451,0.211726,-0.822648,-0.347782,-0.410736,0.702813,0.443808,-0.289585
0.510648,0.923656,-0.812376,-0.117677,0.475428,-0.830882,0.308062,-0.179036,-0.209371,0.991194,-0.423880,-0.764240,-0.211347,0.903691,-0.398689,0.504081,-0.159177,0.082890,-0.053187,-0.036299,-0.260598,0.707101,0.164159,0.214624,-0.756359,-0.925547,0.410673,-0.363135,-0.034444,0.956181,0.862075,0.085208,0.117090,0.659619,0.692002,0.027887,-0.043201,0.826122,-0.903050,-0.155924,-0.717322,0.446331,-0.395123,-0.235083,-0.761476,0.008373,0.081678,0.579211,0.674712,-0.813487,-0.032389,-0.116311,0.831399,0.954071,-0.599756,0.199704,0.435500,0.635031,0.094222,0.301884,0.855214,-0.270198,-0.050256,-0.434685,-0.662824,0.764330,0.423211,-0.422798,-0.888727,0.058064,0.821217,0.320395,0.813685,0.505175,0.604213,0.836647,0.365707,-0.996906,-0.376974,0.739390,0.627000,-0.399535,-0.220970,-0.934369,0.097391,0.522289,0.400201,0.945605,0.973626,-0.136690,0.730184,-1.041290,0.204387,0.270247,-0.264273,0.563654,-0.249646,0.073191,0.830103,0.025808,0.417282,0.324040,0.911407,-0.320082,-0.754855,-0.177586,0.433606,0.730781,0.296623,0.527468,-0.541593,0.782554,0.970010,-0.976246,0.319112,-0.045198,0.153480,0.571401,0.597523,-0.664001,-0.947478,-0.797716,0.352708,-0.575657,-0.130298,-0.566987,0.988260,0.391434,0.779384,0.931616,-0.516787,0.205880,-0.311958,0.133839,-0.556351,-0.672347,-0.788400,0.698445,0.183958,-0.703092,-0.728265,-0.233071,0.315796,-0.814094,0.165026,-0.506536,-0.906519,0.450904,0.438234,-0.202221,-0.128649,0.760222,0.974001,-0.464778,-0.595227,-0.228690,-0.222940,0.042314,0.633436,0.529290,1.144473,0.585657,-0.350615,0.627653,-0.072367,0.934823,0.177424,0.312736,0.988772,-0.256597,-0.051459,0.817511,0.851792,-0.322344,0.116929,0.173422,-0.063490,0.665300,0.394570,-0.042947,-0.148763,-0.393765,-0.012040,0.300844,-0.107861,-0.298468,1.047388,0.167756,0.282954,0.384183,1.348564,1.152430,0.438894,0.957668,-0.129073,0.987122,0.159793,0.096170,-0.003096,0.030179,0.135393,-0.608343,-0.473494,0.920622,1.089910,0.936895,-0.740129,0.151122,-1.206688,0.392501,-1.725915,-0.671061,0.005354,0.106072,1.253110,0.536424,1.360461,0.942653,-0.045278,0.173692,0.766751,1.345614,0.356554,-0.757029,-0.726448,-0.544073,-0.920485,0.439667,-0.094690,-0.236115,0.574564,0.876725,0.071692,1.087930,0.085589,1.196247,-0.309115,0.069631,-0.457626,-1.007487,-0.460197,0.221476,0.356430,1.298005,1.310504,0.539440,-0.505897,0.543761,0.605923,-0.023721,-0.637598,-0.904486,0.064227,0.539579,-0.385043,-0.025356,-0.146107,-0.248095,-0.611085,1.576901,0.745238,0.988475,0.885459,1.747186,0.951097,-1.094843,-1.959157,-0.966904,-0.655906,-0.394494,1.003050,1.727646,0.708718,1.279511,-0.018864,0.657687,0.943925,1.056231,0.171016,-0.593332,0.474012,-0.174876,0.773206,0.881886,0.349672,1.080089,0.474841,-0.031259,1.881290,1.389471,1.161240,1.235294,-0.992731,-0.778795,-1.143845,-0.012022,0.977504,0.575485,0.297199,-0.306422,-0.372169,0.277327,-1.170146,0.748609,0.933464,1.323003,-0.425803,0.704616,0.523551,-0.303257,0.689517,0.897850,0.509097,1.154938,1.199269,1.395518,0.395403,-0.066950,-0.738584,-1.214819,-1.702111,-0.802221,0.456733,0.301044,1.280246,0.817291,1.216003,0.428008,0.620772,-0.637533,-0.031685,-0.025262,0.043963,0.885728,1.046969,-0.417703,0.803812,-0.352905,0.920709,0.348652,1.190540,-0.622626,0.597556,-0.248731,-0.225557,-1.459768,-0.188920,-0.433561,-0.557866,0.207224,1.625073,0.844098,1.292687,1.157172,-0.148945,1.075381,1.009375,-0.227382,-0.559131,-0.808152,-0.709595,0.516753,0.165668,-0.855555,0.751382,0.888145,0.210243,0.066853,0.901593,-0.476099,0.426017,-0.109389,-0.711900,-0.245516,-1.391784,0.169733,0.123190,0.530541,1.534361,1.213298,0.026972,0.435519,0.859383,0.267040,-0.118331,-0.746370,-0.299748,-0.038891,-1.282513,0.614301,0.064779,0.351470,-0.774440,0.628545,-0.377644,-0.394429,-0.058008,0.834755,-0.955187,-0.444325,-1.551446,-1.317697,0.351397,-0.382010,1.281507,1.373067,1.624295,0.474291,0.812935,0.670791,0.287967,-0.286636,0.907123,-1.023641,-0.310756,-0.769144,-1.224777,-0.310572,0.355102,-0.459816,0.562292,-0.631785,-0.922380,0.441338,-0.786317,0.361739,-1.114748,-1.164708,-0.503799,-0.143443,-1.358137,-0.526950,1.152962,1.106475,1.331509,0.415071,-0.792356,-0.049681,-0.262513,-0.569670,-0.397990,0.296221,-1.764667,-0.965173,-1.018965,0.683628,-0.373176,-0.589194,-0.524251,-0.819907,0.975890,0.514182,-0.265438,-0.726420,-0.195957,-0.444363,-0.198828,0.102522,-0.878574,0.526669,-0.087486,1.363811,0.548532,1.588608,0.292809,-1.063041,-0.199805,-0.571492,-0.705562,-1.296527,0.012603,-0.774377,0.939607,0.011161,-0.612852,-0.566769,0.356052,-0.000899,-0.366954,-0.161182,-0.093891,-1.155136,0.227757,0.269339,-0.167389,-0.147297,0.253282,-0.486499,1.177977,1.035436,0.839639,0.259060,-0.016746,0.144547,0.390398,0.012344,-0.292660,-0.739288,-1.175530,-0.144267,0.785954,0.659642,0.169621,-0.424251,0.401953,-0.137264,-0.704161,-0.733021,-0.467100,0.912793,0.593895,-0.177611,0.088671,-0.914546,0.504023,-0.070358,0.306305,0.572781,0.668991,0.285363,0.114281,0.971716,-0.149850,-0.476753,-0.618578,-0.099480,-0.108806,-0.898010,0.752994,0.434176,0.753888,-0.084498,0.556413,-0.535526,0.782832,-0.317569,0.498055,0.434229,0.130489,0.187488,0.161751,1.142649,-0.830649,0.443367,-0.875034,0.793830,-0.013516,-0.207742,0.545747,-0.622852,0.315497,-0.027855,-0.824409,0.588142,-0.138494,0.520529,0.876005,-0.518150,-0.240860,-0.990879,0.871996,-0.960065,0.370511,-0.056645,0.970542,-0.581007,0.429575,1.059481,-0.533945,-0.702458,0.054636,0.516446,-0.626691,0.282906,-0.613715,-0.617595,0.746836,-0.240294,0.297990,-0.618955,-0.894365,0.648964,-0.040321,0.501972,0.273604,1.017755,-0.736100,-0.909258,-0.105162,0.274165,-0.136528,0.127633,0.915969,0.709800,0.309250,0.298569,0.408096,1.066315,0.565957,-0.612421,0.191750,0.071138,-0.188394,-0.608007,-0.523130,-0.325881,-0.298522,0.912157,0.227682,0.202267,-0.662390,1.157943,-0.554191,0.288393,-0.318223,0.632770,0.271909,-0.013933,0.196187,-0.804313,0.401516,-0.396654,1.030066,0.660049,0.958444,0.005607,0.847411,-0.059057,-0.708143,-0.462395,0.407598,0.663308,-0.528007,-0.773815,-0.812472,0.127997,0.314963,0.761205,-0.117824,0.899986,0.984559,0.390658,-0.836923,-0.312535,-0.106209,-0.403235,-0.967086,0.760373,-0.822789,0.662722,-0.977128,-0.211721,-0.304131,0.622156,0.565172,0.021846,-0.285077,-0.698737,-0.388302,0.406769,0.655004,0.400180,-0.847760,0.162185,0.913876,0.205163,0.106497,-0.324676,-0.530306,-0.394014,-0.728826,-0.046276,-0.861587,0.196767,0.844671,-0.891585,0.595855,-0.955628,0.093638,0.635676,0.222193,0.365070,-0.189558,-0.898857,-0.206677,-0.440074,0.403907,-0.387933,-0.104825,-0.624389,0.960371,1.276895,0.065946,0.435539,-0.041935,0.192159,-0.282135,-0.476927,0.837592,-0.509804,-0.593642,0.359844,0.285735,-0.018509,0.837947,1.003456,0.335127,-0.611986,0.256470,0.282999,-0.083145,1.070590,0.126982,0.664930,1.086378,0.918621,-0.402164,1.020692,0.308943,-0.195634,-0.131441,-0.399756,0.360891,-0.309823,0.784173,0.604867,0.527517,-0.328051,0.522351,0.645450,-0.480192,-0.592468,-0.511182,-0.372393,1.033661,-0.591492,0.184763,0.501935,-0.636519,-0.578352,-0.775053,0.546688,-0.713376,1.039226,-0.047946,1.067384,-0.074127,-0.575434,0.143828,0.822744,0.112464,0.675602,-0.804585,-0.218058,-0.657903,0.782235,0.346811,-0.980564,-0.825543,0.215697,0.010264,0.657972,-0.681817,0.522122,0.301214,-0.252214,-0.028167,0.296839,0.611524,0.976043,0.526800,0.295561,-0.217581,-0.075701,0.723039,0.616588,-0.368900,-0.013358,-0.381019,-0.410968,0.032265,-0.807088,0.944794,-0.595685
0.026016,-0.649254,0.879414,0.978714,-0.241436,0.947958,-0.658072,0.308070,-0.291136,-0.018468,-0.933553,0.666197,-0.511123,-0.814442,-0.325097,0.176261,0.951199,-0.986982,-0.061464,0.201119,0.621655,-0.043794,-0.536896,0.507367,0.881929,-0.025867,0.262482,0.764590,-0.943460,-0.183202,-0.320165,0.226803,0.732250,0.224633,0.415589,-0.862494,0.768972,0.581748,-0.933521,0.230554,-0.108040,0.148002,-0.655035,0.636271,0.489560,-0.857510,0.323173,0.278472,0.755226,-0.614264,0.374284,0.460585,-0.933253,-0.000999,0.100677,0.296979,0.834459,0.493215,0.801261,-0.093674,0.854776,0.727714,-0.890212,-0.015962,0.183810,0.603622,0.849255,0.171501,-0.614296,0.184525,1.121905,0.560815,-0.558913,1.081010,0.415960,-0.732935,-0.612487,0.475402,0.506912,-0.639811,-0.362395,-0.868665,-0.691878,-0.105414,0.639186,0.311637,-0.636456,0.571768,-0.468222,0.342390,0.945740,0.916568,1.156229,-0.432963,0.638121,0.130410,0.791020,0.802131,-0.233114,0.398771,-0.326304,-0.300796,-0.664758,-0.871899,0.653257,-0.617895,-0.139505,-0.846309,0.116746,-0.248151,0.765719,0.620275,-0.515569,-0.860508,0.854569,0.534976,0.742730,0.702867,-0.787832,-0.462823,-0.051445,0.034819,0.193412,0.398392,-0.990054,-0.617774,0.763322,0.019241,-0.853596,0.138421,0.375903,-0.684608,0.038803,0.459058,0.362471,-1.013146,-0.693290,-0.946076,0.212692,-0.486077,0.334903,-0.369837,-0.244216,0.643442,0.499549,-0.208140,0.429736,-0.065988,-0.407414,-0.556499,-0.305841,-0.215855,0.778647,0.159443,0.237609,0.463959,0.755420,0.319319,-0.816808,-0.538270,-0.038488,-0.443504,-1.132989,0.436371,-0.249961,-0.729348,0.961291,0.199851,0.801809,0.955281,0.449024,0.645602,-0.715614,-0.219357,-1.032680,0.599049,0.152162,-0.324596,-0.342874,-0.464459,0.873680,0.315316,-0.320694,0.004919,-0.521752,-0.915746,-1.097421,-0.132723,-0.939306,-1.222825,-0.340341,0.203659,0.265384,-1.025223,-0.145174,-0.119755,0.821528,0.614046,-0.452951,0.219333,-0.832715,-0.686890,-0.488437,-0.657696,-0.866598,-0.356709,0.489990,-0.530803,-0.686504,-0.290160,-0.312724,0.030004,-1.558287,-1.586868,-1.110498,-0.618759,-1.773601,-1.252742,-2.127334,-0.117208,0.134219,-0.158297,0.209661,-0.261020,-0.512047,0.595308,0.236529,-0.886451,0.214067,-0.269740,-0.103817,0.329383,0.054380,0.212347,0.304555,-0.606322,-1.166481,0.039088,-2.050933,-1.237276,-0.819957,-1.605605,-0.978988,-1.269411,-1.069294,-0.760779,-0.807732,-0.613261,-0.672530,0.306349,0.533165,-0.954825,-0.165644,0.112996,0.927797,0.639408,-0.139715,-0.511431,-0.115603,0.451158,0.328507,-0.046624,-0.292677,-0.823462,-0.788408,-1.211479,-1.206275,-0.523387,-1.776029,-1.222624,-0.552647,0.028064,-0.766264,0.055649,-0.836948,-0.651264,-0.163267,0.701432,-0.924407,0.919520,-0.409970,0.141176,0.032451,-1.019192,-0.710849,-0.352483,-0.655357,0.663645,0.511062,-0.027589,-0.793456,-0.537435,0.090423,-0.968119,0.313361,-0.427669,1.701600,1.311806,0.546018,-0.198302,0.199578,0.514679,0.475990,0.805951,0.400507,-0.016802,0.309238,-0.954196,0.513562,-0.904461,-0.772491,-0.365892,0.063722,1.033222,0.659912,0.210576,-0.322865,-0.069604,0.191329,1.113142,-0.096083,-1.065131,0.519953,-0.052536,0.503001,1.305498,2.242026,0.872059,1.416283,-0.129515,0.813448,1.506104,-0.155753,0.761067,-0.722811,0.617742,0.639686,0.408181,0.326605,0.436456,-0.479669,-0.462461,-0.207517,0.376985,0.142687,0.603237,0.919093,0.069120,-0.166635,0.529729,0.323285,0.289717,0.627804,0.651560,0.933785,0.545588,0.552690,0.386732,-0.087793,0.271701,0.244807,0.251024,0.572419,0.358530,0.967783,0.116342,-0.429688,-0.545382,-0.476002,-0.414931,0.791789,-0.208054,0.297925,0.362640,0.477952,-0.199709,-0.750398,0.166614,-0.266240,-0.157623,-0.934794,0.021140,-0.738626,-0.068022,-0.051030,0.077776,0.749487,1.422353,0.639274,-0.324226,-0.736048,-0.435587,-0.431610,-0.096490,-0.087785,0.972875,0.860218,-0.803869,0.139429,0.224930,-0.367045,0.259497,0.408871,-0.493180,-0.229333,-0.217565,-0.801843,0.492248,-0.508013,-0.348958,-0.271150,-0.319217,-0.515813,0.768622,1.127021,0.224302,0.001577,-0.252372,-1.066085,-0.738533,0.486976,0.085943,-0.741001,-0.635333,-0.133709,-0.385690,-0.056542,0.731015,0.242624,-0.526825,-0.815682,-0.003584,0.115609,0.270459,-0.708215,0.369898,0.029383,-1.261628,-0.551485,1.028633,0.958713,0.295657,-0.043903,-0.533089,0.684260,0.312196,0.633496,-0.408224,0.220240,0.487475,0.250419,0.512925,-0.112539,0.602315,0.804091,-0.568120,-0.619844,-0.066138,0.265465,0.632699,-1.054978,-1.228143,0.246867,-0.769336,0.133353,-0.404322,-1.069152,0.134463,-0.731119,0.257940,-0.243028,0.605515,0.750150,-0.373350,0.243938,0.592728,-0.550467,0.945575,0.124114,-0.162692,-0.995334,-0.685565,-0.892469,-0.813074,0.499976,-0.034596,-0.826668,-0.171391,0.415578,0.260070,0.158300,-0.506915,-0.819463,-0.062272,-0.906232,0.421619,0.788404,-0.866779,0.855268,-0.472529,-0.036024,0.163813,-1.046179,-0.037493,0.589423,-0.043551,0.352347,-0.785231,0.171198,-0.315487,-0.723800,-0.018249,0.254994,0.166086,0.100154,0.256770,1.088627,-0.170534,0.042731,0.272828,0.117575,-0.704656,-0.538926,-0.814860,-0.105868,0.933011,-0.337971,0.031745,0.147379,0.173976,-0.785176,0.818887,-0.837194,-0.539137,1.019100,-0.396400,-0.903324,-0.299753,-1.271358,0.078066,-0.990996,-0.452334,0.544310,-0.503248,-0.479335,-0.114035,1.222297,0.129340,0.899650,-0.380281,0.461821,-0.540021,0.915141,-0.068674,-0.164881,-0.719056,0.691829,-0.994646,0.531926,-0.657225,-0.130006,-0.324413,-0.835480,-0.566205,0.129145,-0.644093,-0.305364,-0.412094,0.459182,0.745985,-0.468122,0.628467,0.839529,0.390075,0.606664,-0.049325,0.110793,0.732555,-0.210621,-1.013495,-0.166691,-0.387854,0.946955,0.287268,0.303983,-0.025206,-0.446825,-0.629895,-0.662221,-0.498729,-0.386161,-0.280071,0.593172,-1.157678,0.271899,0.354605,-0.606696,-0.042176,-0.139051,-0.357063,-0.909686,-0.309340,-0.499647,0.236367,0.518283,-0.505599,1.212858,0.550800,-0.253686,-0.649475,0.510715,-1.024680,0.347390,-0.349591,0.679024,-0.497495,-0.653193,-0.316405,-0.338285,0.405793,0.685532,0.300856,0.383006,0.509312,-0.192106,0.312433,-0.250821,0.196470,0.487326,-0.934874,-1.000663,-0.164147,-0.537960,-0.577131,-0.694507,0.821253,-0.863498,-0.231052,0.584975,-0.741003,-0.998812,-0.385883,0.373280,-0.880160,0.129014,-0.799581,0.889168,0.560169,0.325199,0.508062,0.211346,0.103560,-0.357919,-0.500186,-0.944962,0.259445,-0.686751,-0.506875,-0.455148,-0.104127,-0.296491,-0.576927,-0.602332,-0.722215,-1.088369,-0.082936,-0.767674,0.266358,-0.270698,-0.483343,-0.913504,0.572701,0.314749,-0.990427,0.418048,-0.126619,0.347728,0.686685,-0.101917,0.279199,-0.186015,0.723779,0.695926,-0.214546,-0.840705,-0.659166,-0.510960,0.509641,0.779452,1.122147,-0.841918,-0.710900,0.653177,-0.692002,-0.250691,0.722780,-0.915749,-0.691056,0.558168,0.684231,0.349884,-0.934030,-0.056351,-0.605252,0.389383,0.064620,-0.357518,0.043623,-0.512621,-0.603600,-0.018838,-0.854067,0.166298,-0.606071,0.638912,0.494597,-0.643056,1.184585,0.978443,-0.664896,-0.330754,0.249012,-0.126815,0.701455,0.150245,0.830685,0.946384,0.266586,0.007998,-0.302885,-0.164155,-0.688792,-0.121394,-0.984925,-0.893784,-0.320207,0.859272,0.325254,-0.104136,0.920327,0.629891,-0.919373,0.661356,-0.940775,-0.864224,0.908066,0.573280,-0.699772,0.404641,-0.078947,-0.659191,0.049432,-0.899281,0.351642,-0.263565,0.759197,-0.894383,-0.467123,0.267237,-0.202836,0.486477,0.989162,-0.977502,-0.834500,0.979426,0.559874,-0.815950,0.806138,-0.178906,-0.253800,0.202098,-0.468115,0.156927,0.126519,0.992743,0.134529,0.358566,-0.835525,0.737174,-0.055141,0.833190,-0.380447,0.467333,-0.402690
0.780429,-0.711854,-0.541981,-0.359140,-0.632071,-0.804084,0.012354,0.579585,-0.196640,0.835628,-0.387341,-0.724481,0.533213,0.235318,-0.899741,-0.831145,0.212750,-0.698774,-0.613870,-0.646229,0.384164,0.774722,0.363621,-0.549792,0.475026,0.141247,-0.646016,-0.021816,0.523065,0.815847,-0.184405,-0.018781,-0.589620,0.316561,-0.586992,0.389544,-0.696577,0.420020,-0.866471,-0.172229,0.034122,0.269714,-0.199510,0.884753,0.577760,0.002037,0.950830,0.760134,0.122609,-0.925336,-0.368641,0.987045,0.173394,-0.807219,0.082986,0.755171,-0.380463,0.622040,-0.987217,-0.057524,0.897843,-0.614766,-0.561180,-0.960501,0.978187,0.745771,0.237096,0.460943,-0.150260,-0.720826,0.119730,0.350074,0.505322,0.363615,0.468246,0.181464,0.329738,0.652801,0.521359,-0.743335,-0.004832,0.447059,-0.685728,-0.716813,-0.364469,-0.335498,-0.114087,-0.201033,0.190797,0.254725,0.346319,-0.842695,0.321518,-0.021888,1.032831,1.173445,-0.112451,1.091517,0.986382,0.336877,0.607600,-0.770013,0.914654,0.935909,-0.790713,0.478158,0.714999,0.000125,-0.351185,-0.606724,0.066762,0.845669,0.753232,0.159333,0.629846,-0.015861,-0.965273,-0.095712,0.807022,0.143533,0.765615,0.377195,-0.642020,0.738708,0.529841,-0.449745,0.466445,-0.107699,0.252399,0.517328,0.572888,0.463948,-1.159017,0.207934,-0.562433,0.131623,0.749914,0.806097,-0.454948,0.480346,-0.611783,0.494740,0.271460,-0.830212,0.978771,0.115813,0.164110,0.281018,0.439799,1.175442,-0.233409,1.045857,0.816289,0.638164,0.256759,1.025728,0.368529,0.345944,0.620572,0.173793,0.418611,0.241923,0.053468,0.037056,-0.807725,-0.185536,-0.326126,0.607841,0.897783,0.711133,0.277048,0.915423,-0.481622,-0.530897,-0.806019,0.371223,1.014855,-0.324284,1.021136,-0.096508,0.206522,1.025879,0.891282,1.063961,0.541790,-0.862240,0.281976,0.110662,0.630142,0.471467,0.203208,-0.246972,-0.633403,0.462947,-0.613677,0.055269,0.500422,0.980168,0.859858,0.037827,0.718133,-0.811308,0.306192,1.121099,0.338018,-0.168838,0.469572,1.092342,-0.489732,-0.623464,0.372674,0.373574,-0.933374,-0.308994,-0.016202,0.967391,-0.879648,-0.076852,-0.304385,0.967389,0.759478,0.414601,0.188453,-0.591349,-0.513270,-0.174451,0.070417,-0.460760,-0.907813,0.381094,0.524826,1.088429,-0.638010,0.125119,0.291698,0.240244,0.432945,-0.065805,-0.505278,1.094609,-0.658040,-0.513667,-0.186171,-0.424102,0.213580,-0.275811,0.229725,1.114960,1.221708,1.244229,-0.682780,0.289555,-0.064333,-0.223536,-0.584917,0.805178,-0.485624,0.833772,-0.241866,0.583533,1.064653,0.056273,-0.573526,0.493103,0.635224,1.020014,0.479574,-0.298711,-0.397340,-0.769012,-0.489544,-0.358818,-0.383430,1.214014,-0.451570,1.441655,1.183280,0.101223,0.446087,-0.165079,-0.771516,0.154127,0.690225,-0.278201,0.470070,0.199975,1.047501,0.025121,1.103606,-0.024997,0.342063,0.282253,-0.019654,-0.150011,1.359595,-0.582746,-0.988812,-1.523764,-0.514211,-0.190231,-0.935230,1.006245,0.464006,1.139643,1.294387,0.056022,-0.036494,0.578367,0.267935,0.464244,0.896001,0.773944,-0.326321,-0.051578,0.390362,-0.571712,-1.026502,-0.550197,-0.016850,0.342457,0.804131,0.650091,0.809194,-1.689930,-1.353653,-1.534893,-1.239664,-1.434298,-0.779192,-0.769596,1.175170,1.497405,0.492112,0.461785,1.024279,0.390360,0.499718,0.890975,0.593687,-0.078684,-0.737433,0.857565,-0.093938,0.681662,0.079458,0.331332,0.091446,-0.730217,0.824955,-0.183559,-0.063476,-2.031350,-1.549129,-1.594758,-1.102191,0.071367,-0.598142,-0.267903,-0.631276,0.887775,1.074830,-0.409677,0.309335,0.524565,-0.341681,0.293397,0.616108,-0.311720,-0.936675,-0.554613,-0.054367,-0.448919,-1.379623,0.471377,-0.852433,-0.146672,0.511867,0.932632,0.456043,-0.676063,-0.797276,-0.651486,-0.767869,-1.037290,-0.937537,0.419195,-0.682034,0.818139,-0.629142,1.152311,-0.358903,-0.619324,-0.143859,-0.570724,-0.536953,0.683385,-1.159832,0.220272,0.522116,0.207962,-0.897034,-0.407151,-0.030706,-0.015143,0.201703,0.412776,0.412038,-1.404954,-1.924932,-2.214022,-0.840289,-1.385422,-2.248062,0.121278,0.968817,-0.338146,-0.265062,0.003523,-0.176587,-0.021734,-0.514239,0.748566,-0.156979,0.727354,-0.048774,-1.120659,0.386951,-0.885899,-0.719845,-0.573761,-0.460091,-0.583863,1.417050,0.639574,0.073492,-0.400307,-0.576892,-2.221299,-2.011532,-2.272257,-1.109681,0.281111,-0.778615,0.022879,0.906047,0.779402,-0.107314,-0.287207,-0.124297,-0.548735,-0.403789,0.884991,-0.722659,-0.335052,0.095959,-1.150636,-0.753796,0.137705,0.188788,0.308819,0.062834,0.262878,0.247055,-0.992135,-1.529060,-2.069860,-1.681712,-0.879298,-0.179008,-0.012561,-0.179980,0.261984,0.621502,0.490779,0.528179,-0.141100,-0.224705,-0.139632,0.144374,-0.438822,0.851038,-0.625751,0.293231,0.374195,0.089639,-0.709717,-0.613908,0.909123,0.231585,0.098566,-0.847276,-0.978762,-0.756468,-1.066102,-0.872826,-0.213077,-0.017160,1.012473,0.273460,1.285964,0.907995,-0.136948,0.433779,0.133913,-0.644555,0.517281,0.866276,0.079591,0.558188,0.223262,1.392131,0.950519,0.253656,1.038339,0.229413,0.146566,0.781276,-0.091574,-1.649854,-0.618052,-0.990854,0.482694,-0.077062,1.140091,0.477129,1.354434,0.861819,0.268981,1.002167,0.774389,-0.116481,0.511917,-0.484150,0.951319,0.916062,-0.662869,0.379934,-0.198563,0.041978,1.330476,0.529496,1.195931,0.856168,0.626080,0.260866,0.224139,-0.625760,-0.346506,0.102367,0.369459,0.208437,0.450490,0.832733,1.229503,1.543015,1.141239,0.501106,-0.165229,-0.490745,-0.436288,-0.386003,-0.173558,-0.434020,0.699746,-1.002301,-0.144831,0.706966,1.227878,1.421662,1.474607,1.239604,2.358062,0.687068,0.867045,1.396482,0.283388,1.041268,1.353289,1.263347,1.932695,1.941382,0.436957,1.654699,0.394163,1.087222,-0.248753,0.721440,0.038060,0.059936,0.467293,-0.734656,-0.814570,0.570079,-0.603536,-0.262439,0.469905,0.513536,1.269573,0.598766,1.150211,0.383086,0.648442,1.140475,1.038096,0.673428,0.429548,1.075292,0.528257,2.281176,0.337475,0.603033,0.659997,0.377625,0.717862,0.928733,0.495261,0.141360,-0.822926,0.394261,-0.766612,0.005551,0.068065,0.199368,0.175503,-0.022748,0.660546,0.635959,1.381170,1.562231,1.428179,0.730404,0.322549,0.393338,1.442860,1.711038,0.595276,-0.329031,0.672505,0.287713,-0.319684,-0.917629,-0.307039,0.804940,0.466709,0.413558,0.561811,-0.952164,-0.143652,0.394209,-1.667855,-0.136864,-1.513006,-0.010027,0.044101,0.582239,0.531564,1.033841,1.307037,1.112721,1.367692,1.489930,0.403729,0.589523,0.930342,-0.175803,-0.042344,0.491915,0.383113,0.563309,0.180721,-0.899173,0.416234,0.269662,-0.115015,0.314799,-0.210422,-0.104349,0.145365,-0.750021,0.356501,-0.201346,1.232110,0.405792,0.069093,1.518468,0.975438,0.462009,1.684726,1.094433,-0.003159,0.189804,0.735251,-0.988251,-0.097017,-0.321498,0.096444,-0.332040,-0.490213,-0.582453,0.960072,0.609789,0.598936,-0.506458,0.252194,0.256728,0.339769,-0.524213,-0.747591,-0.306464,-0.556037,0.772313,-0.469638,0.300619,-0.167905,0.589218,0.307223,0.201807,1.072078,0.091688,0.474771,0.566728,-1.135505,-0.481515,0.313977,-0.376921,-0.347536,0.553613,-0.574736,0.747582,0.272192,-0.764431,0.457355,-0.560411,0.063023,-0.704838,-0.899275,0.585502,-0.090370,-0.473642,-1.256461,0.469946,-0.264489,-1.145865,0.225974,-0.367495,0.394343,0.524544,0.137955,-0.124599,-0.798910,-0.784195,-0.965361,-0.198294,0.117423,-0.450211,0.420753,-0.528667,-0.016443,-0.142783,-0.131748,-0.679782,-0.702746,-0.597347,-0.848866,0.542809,-0.508466,-0.917264,-0.307653,-0.927447,0.639688,-0.757573,0.860913,-0.917757,0.790362,0.789082,-0.305568,-0.126978,0.112787,0.439662,0.384491,-0.868739,0.241459,-0.228887,-0.589528
-0.205731,0.026180,-0.904496,0.798448,0.353520,0.096130,0.433015,-0.253381,0.797140,-0.937103,0.881155,0.687835,-0.937101,-0.107544,-0.955173,-0.357018,-0.073766,0.270119,0.549706,-0.727252,-0.958903,-0.280073,-0.843780,-0.114043,0.711514,0.396055,-0.417961,-0.405973,0.203669,-0.685904,0.257401,0.912287,-0.473529,0.813084,0.436874,-0.084855,-0.246215,-0.647161,0.479625,0.605392,-0.762919,-0.006175,-0.436476,0.429702,-0.901935,0.170793,-0.287155,0.064878,0.304464,0.276944,0.199787,0.933074,-0.869766,0.901590,0.636637,-0.879689,-0.312894,0.026771,0.916435,0.711946,0.756095,-0.327996,0.618713,-0.787944,-0.438782,-0.739773,0.857710,0.337687,-0.344381,-0.029940,-0.462151,0.691550,0.778727,-0.604731,-0.528427,-0.250992,-0.682747,0.570290,0.227367,0.689963,0.925125,0.308597,-0.004964,0.867910,-0.197580,-0.122418,0.592907,0.337552,-0.760596,-0.694171,-0.368384,-1.000648,0.075319,0.992876,0.210827,0.182394,1.064535,-0.352918,0.574167,-0.639090,-0.275277,0.708120,-0.587914,0.298510,-0.515612,-0.795888,-0.506236,-1.429710,-0.838244,-0.453761,-0.141503,-0.392935,0.271159,-0.120045,0.178660,0.904190,0.602090,0.901343,0.665983,0.944231,-0.664154,0.499232,1.041300,1.055553,0.629118,0.276377,1.491687,0.504742,0.715712,-0.426159,1.212502,-0.290791,-0.441637,-1.284725,-0.411126,-0.001832,-0.341349,0.384505,-0.777796,0.513931,0.519288,-0.832531,-0.113674,-0.660494,-0.725293,0.457696,-0.614561,-0.543645,-0.328462,0.651596,-0.492221,0.148619,0.426655,-0.326388,-0.038878,0.324518,0.586511,0.242767,-0.577509,-0.267048,-0.129450,-1.225122,-0.232589,-1.574516,-1.120605,-0.981977,-0.742304,-0.663580,-0.911979,0.152516,0.439848,0.221263,-0.681158,-0.416742,0.835830,0.902633,0.198161,0.144785,-0.275140,0.331504,-0.626216,0.320351,-0.102857,1.570998,1.133033,0.118648,0.136414,-0.267950,-0.332489,-0.355732,-0.115281,-0.404795,0.197013,0.450399,-0.133511,-0.896096,0.631477,0.304716,1.026024,0.653448,-0.342179,0.408692,0.371470,-0.392265,-0.088717,1.343362,-0.203770,0.803322,0.114493,0.561685,0.832031,0.375789,-0.346378,0.327622,0.482836,0.074415,0.244564,-0.205476,-0.125959,-0.843663,-1.674533,-0.210579,0.674133,0.722516,0.734121,-0.614575,0.589758,0.875853,0.595052,0.799365,0.217646,0.317316,0.606282,1.119801,0.279994,0.724615,0.436774,-0.017707,0.906125,0.354907,-0.204841,0.564705,-0.408392,-0.072026,0.179989,-0.200737,0.410594,-1.542351,-0.618416,-0.393157,0.872966,-0.176273,0.431186,-0.064109,-0.057101,0.107658,0.475509,0.486179,1.085730,0.819614,0.575497,0.054323,1.068969,0.645642,-0.814235,0.145620,1.556207,1.584536,0.746949,0.995493,-0.566070,0.691450,-0.075400,0.017856,-1.100981,-1.526463,-1.425219,-0.657046,0.164932,-0.168961,0.938357,-0.339247,-0.333876,0.120540,0.347857,-0.165549,0.186299,0.294706,0.579897,-0.562165,-1.193723,-2.118953,-1.934501,-3.251504,-1.297887,1.045609,1.453174,0.976193,0.857923,-0.225270,-0.817085,-0.142977,-0.201409,-0.841863,-1.409981,-0.179636,0.029593,0.337150,-0.139544,-0.055533,0.310931,0.318382,-0.665227,-0.483229,-1.656161,-2.486521,-1.927124,-1.890623,-2.981863,-2.929164,-2.836712,-2.976909,-0.742525,1.034467,0.546080,-0.079729,0.532416,-0.063270,0.465508,-0.351937,-0.767679,0.204235,-0.238795,1.041108,-0.450322,-0.352624,-0.315813,-0.305658,-0.954485,-0.155776,-0.287549,-2.027133,-3.257500,-3.667644,-3.706883,-4.016215,-2.837183,-2.728567,-2.212694,-2.566618,-0.143386,0.756231,0.242370,-0.856254,0.397407,0.338632,0.000437,-0.452097,-1.214285,-0.034482,0.372794,0.050846,0.241004,0.925108,-0.697907,-0.190456,-0.884493,-0.981822,0.139416,-2.895377,-1.999341,-2.399534,-2.006124,-2.168081,-0.459789,-1.397587,0.609399,-0.694892,-0.069478,-0.198602,-0.192573,0.420845,0.593324,0.188241,-0.524406,0.681951,-1.518174,-1.435224,0.257848,-0.138883,0.187604,0.235301,0.180036,-0.590893,0.400714,0.473434,0.480402,-0.806433,-2.224376,-1.611690,-1.021217,-0.686141,-0.195101,-0.017752,-0.280143,0.128270,0.613886,-1.085812,-0.332786,-0.046943,0.477783,0.700188,0.101084,-0.801670,0.401454,-0.232405,0.060022,0.897494,-0.560198,0.647974,0.365686,0.830424,-0.218781,0.447953,-0.281209,-0.512295,-1.171230,-0.653235,0.359200,-0.305438,0.894625,0.700402,-0.207355,0.091114,0.423089,0.605200,-0.432897,0.124591,-0.213723,0.502085,0.127609,0.218056,-0.673611,-0.958927,-0.723475,0.226267,0.455234,-0.312974,0.071955,0.896384,-0.797139,0.671787,1.266963,0.006725,0.706888,-0.643877,-1.300200,-0.247135,-0.803170,-0.739879,1.107160,0.274747,-0.095128,-0.214164,-1.018082,-0.132033,-0.394255,0.946784,-0.072348,0.082993,0.202946,0.200750,-0.475621,1.236519,0.746581,0.704853,0.659106,0.199793,-0.045427,0.286999,0.832587,1.000863,0.902567,-1.127565,0.099456,-0.446515,-0.055440,-0.870689,-0.612685,0.358029,-0.190241,0.444072,-0.564255,0.420368,-0.110614,-0.147553,-0.329223,-0.002565,-0.371617,0.619957,0.341777,0.170482,0.953578,-0.743611,-0.731295,0.330350,0.182886,1.262463,1.828793,1.356567,0.233200,0.390194,0.321301,-0.234760,-0.468191,-0.565917,0.557003,0.632509,0.524908,0.051273,-0.249033,-0.383988,0.319671,0.342834,0.284506,0.833433,0.830451,1.653096,0.998532,0.795134,-0.291664,-0.907529,-0.154417,-0.782722,-0.301907,0.586757,1.954353,0.952319,0.213616,0.501584,-0.043445,-0.083142,-0.493571,0.455269,-0.510957,1.131562,0.444195,-0.599452,0.915537,1.269167,-0.117299,1.021359,0.051626,0.487697,-0.423472,0.764025,0.770268,0.168685,-0.808339,-0.426443,-0.712449,-0.602831,-0.721508,-0.315286,0.556851,1.565903,0.730772,0.748597,0.520184,0.381418,0.170735,-0.329288,0.377390,-0.455318,0.240765,-1.202800,0.502623,-0.574856,1.003418,-0.113029,-0.233587,-0.213939,0.974455,-0.077438,-0.377140,-0.211592,0.928270,-0.140718,0.868546,0.983397,-0.686771,-0.338503,0.850754,0.008104,1.064261,0.182979,-0.664652,0.328872,0.026832,-0.844429,0.066648,-0.298860,0.060966,-0.043976,0.461437,-0.814111,0.673904,0.782322,0.935864,-0.244656,1.309466,0.781520,0.411824,-0.350095,0.870040,-0.387383,0.683211,0.386216,-0.006094,1.242664,1.411773,0.268960,1.067427,0.654416,0.233884,0.622666,0.110484,-0.718589,-0.742049,-0.304538,0.032332,0.324996,-0.524031,0.257466,0.295572,-0.281285,-0.148668,0.633732,0.980382,-0.015857,0.688446,0.367016,-0.604341,-0.091171,-0.524086,0.494314,0.460890,0.711369,1.022330,1.468737,1.113326,-0.459449,0.523403,-0.851138,-0.184026,-0.581888,0.040441,0.037278,-0.879369,-0.881480,-0.109360,0.162782,-0.292506,-1.158249,0.481476,0.597528,0.161409,-0.389692,-0.021265,0.219535,0.625095,0.442000,-0.897604,-0.989973,0.407500,-0.123887,-0.706253,0.964700,1.295220,0.944959,-0.803449,-0.234627,0.111067,0.086363,-0.188473,-0.004403,0.419076,-0.601717,-0.273444,-0.199697,-0.867520,-0.779243,-1.552355,-0.379047,0.736872,-0.794827,-0.101898,-0.035222,-0.225639,0.993180,0.845431,0.987516,-0.026700,0.784000,-0.720162,0.466814,-0.144299,0.735382,0.523387,1.016855,-0.471686,0.861763,-0.549459,0.900954,0.397987,0.703648,-1.127559,0.287644,0.194749,-0.040607,-0.337575,-1.150272,0.795164,0.507883,-0.273951,-0.476538,0.788803,0.657708,-0.026321,-0.443801,0.932684,0.433578,-0.561036,-0.587854,-0.686550,0.428013,-0.721405,-0.924753,-0.677950,0.111140,0.328564,0.834884,-0.321054,0.030621,-0.372185,-0.624550,-0.261726,0.739612,-0.625835,0.104847,-0.806418,-0.430583,-0.471908,0.133708,-0.105831,-0.961296,-0.909373,0.816956,-0.640306,-0.933586,0.248775,-0.789552,0.461880,0.575454,-0.080371,0.863102,0.172963,0.190408,-0.441796,0.912670,-0.613064,0.666854,-0.917701,0.207987,-0.465842,0.215664,0.544443,0.871124,0.216076,0.810941,0.529089,-0.723152,-0.443056,-0.086076
-0.844157,-0.218037,-0.217942,0.283211,0.644039,-0.236446,-0.842705,0.673840,-0.904687,0.817883,-0.981037,0.030320,0.743971,0.785268,0.390861,0.939320,-0.350882,-0.604959,0.247631,0.601884,-0.959227,0.487604,0.553763,0.954815,-0.558270,0.391563,0.526111,-0.323536,-0.403075,-0.810486,-0.714616,-0.450226,-0.598268,-0.035506,0.262550,-0.668720,-0.241678,-0.798983,-0.280708,-0.341346,0.495131,0.791927,0.350816,0.321310,-0.645972,0.156922,-0.260513,-0.835821,-0.282347,0.338675,-0.419248,-0.073830,-0.902170,-0.895076,0.100906,0.872576,0.921365,0.984183,0.707292,0.372074,0.229229,-0.973839,-0.186932,-0.987546,-0.087246,0.307621,-0.677644,0.560671,0.093013,0.317400,-0.386776,-0.013485,-0.662245,-0.774066,-0.179652,0.568625,0.123368,-0.614080,0.529572,0.050616,-0.108212,0.569974,-0.090835,0.217206,-0.003139,0.499113,0.457624,-0.843913,0.818636,0.817666,-0.876346,0.225482,-0.955061,-0.861948,0.834560,0.382379,0.390189,0.036173,-0.669140,-0.427932,0.329203,-0.587785,0.112223,0.075559,-0.845631,-0.121733,0.552383,-0.334618,0.156683,-0.553047,-0.621995,0.315463,0.251981,-0.199426,-0.940094,-0.692152,-0.234172,0.739963,-0.865224,0.877795,0.811274,0.102503,-0.611548,0.036318,0.273884,-0.030702,-0.313613,-0.219118,-1.391241,0.148090,-0.284202,-0.904635,0.190377,0.210949,-1.176148,-0.974665,0.665029,-0.548931,0.782570,-0.089270,0.415654,0.123378,0.956894,-0.731744,-0.163976,-0.347394,0.054442,1.258090,-0.131195,1.206217,0.744811,0.168873,0.705102,-0.097747,-0.567315,0.639646,-0.188575,-0.908646,0.439713,-0.938016,-0.324909,-0.389759,-0.179226,-0.031109,-1.010354,0.766022,0.496187,0.716358,-0.826770,0.446655,-0.822918,0.724950,-0.320103,1.088803,0.227009,0.506913,-0.194849,0.891500,-0.053356,-0.505909,0.903596,-0.059238,0.585568,-0.251187,-0.984305,-1.305741,-0.852924,0.354714,0.101011,-1.337452,-0.642200,0.095479,-1.072226,-0.496253,0.506731,0.019836,-0.246056,0.107641,-0.381071,-0.374171,-0.214542,-0.607467,-0.030042,-0.195477,-0.181423,1.195904,0.915699,-0.427014,-0.492249,0.841534,0.446634,-0.030960,0.275804,0.566726,0.444761,-0.479710,-0.253502,0.607340,0.847744,0.556930,0.708855,0.717728,0.225061,0.918543,-0.405838,-0.001509,-0.858361,-0.750470,0.385845,0.996303,0.436284,0.323560,0.252385,-0.406197,0.180486,0.362627,-0.551994,1.002332,1.213667,0.143988,0.424624,0.960756,0.602228,-0.084086,0.950098,-0.257660,-0.064520,-0.399387,-0.038246,-0.173973,0.369582,-0.047422,0.495986,0.509487,-0.597190,0.102527,0.643016,0.163520,0.170336,1.094515,0.232225,0.197064,-0.809199,-0.612733,0.969992,0.195868,0.618302,0.925299,0.941720,1.272297,1.611463,0.593929,1.458264,0.059990,-0.026108,0.355384,-0.670933,-0.276116,0.354125,-0.191330,0.086241,-0.240889,0.591935,-0.736981,-0.306190,1.090957,0.045806,0.302848,1.310296,-0.553520,-0.911125,-0.642750,0.101452,0.482308,0.280568,-0.159426,-0.080719,0.488662,-0.513033,1.473923,-0.163511,-0.404413,1.036108,0.247299,0.227101,0.418927,0.566814,0.331212,0.769399,0.409755,0.401660,-0.206214,0.706358,0.863891,0.717300,1.407667,-0.427677,0.303388,-0.559416,0.267618,-1.000077,-0.820826,-0.667226,-0.260389,-0.611392,-1.295636,0.401951,0.119114,0.274546,0.312647,1.070709,-0.157705,0.533998,-0.489662,-0.215638,-0.746871,-0.291528,-0.177815,0.810623,0.384566,-0.783017,1.172878,0.464614,0.388068,0.339448,0.456969,-0.837570,-0.308685,0.575741,-1.067246,-0.214278,-0.496882,0.570059,0.199806,-0.381978,-0.760322,0.256560,0.005490,-0.076982,1.208763,0.154280,0.298072,-0.502276,-0.946776,-0.360638,0.318149,-0.269259,-0.549065,0.454905,-0.594749,0.008174,1.665520,1.454851,1.083204,0.689339,-0.779176,-0.184446,0.597317,-1.076758,-0.758205,0.720529,-0.832536,-0.190135,0.065920,0.403381,-0.499141,0.218736,1.150389,-0.631350,0.430356,-0.623088,-0.604133,-0.913620,0.477840,-0.273111,0.961159,0.392595,0.051323,-0.304157,1.052602,1.343776,0.770766,0.191083,0.176252,0.352669,-0.092142,-0.062815,-1.055500,0.818285,0.433831,-0.342752,0.580087,0.581994,0.487202,0.493295,-0.277526,-0.445758,0.246783,0.045644,0.270457,-0.737362,0.676934,-0.946643,-0.528411,0.107443,-0.384340,0.845748,0.461678,0.349829,1.789174,1.810204,-0.156502,0.661515,-0.241897,-0.086048,0.522306,-0.779667,0.111914,0.723902,-0.129193,0.526054,0.149220,-0.723740,-0.278617,0.125580,-0.279529,-0.623196,-0.191532,0.998956,-0.020614,-0.134846,-0.224520,0.546749,-0.886569,-0.574186,0.916026,0.735026,0.983934,1.950945,1.907190,1.217613,0.854586,0.414625,-0.568817,0.744711,0.483476,-0.180639,0.179635,0.225877,-0.212563,0.822724,0.558822,0.454312,0.732046,0.852409,-0.410641,0.352525,-0.365389,0.706854,-0.000163,-0.048316,-0.023318,0.362083,-0.223509,0.234493,1.521768,1.102268,0.983242,1.169848,0.052100,0.516860,0.084003,0.280445,0.761195,0.148023,-0.067127,0.063333,1.126369,0.810839,-0.814195,-0.360320,-0.424130,0.741416,0.039113,-0.932536,0.456113,-0.477901,-0.001331,-0.243924,-0.540981,-0.587826,-0.276586,-0.877714,0.688754,0.355784,0.766191,1.425015,0.407782,0.164096,-0.175969,-0.212512,-0.787556,0.655772,-0.286816,-0.217531,1.084601,0.438763,0.889133,-0.685553,-0.336585,0.153092,0.839452,-0.688256,-0.010076,0.913829,0.799761,-0.629269,-0.472889,-0.260596,-0.864282,-0.958334,-1.128894,0.216373,-0.770921,-0.933778,-0.025782,-1.228331,0.569646,-0.221240,0.464504,0.130508,0.421838,-0.432346,-0.370755,-0.611651,0.421249,-0.914844,0.219795,-0.263064,0.121507,0.478994,-0.939636,-0.216200,-0.638432,-0.867660,0.103848,-1.162933,-0.772973,-0.122441,0.216748,-1.183412,-0.980197,-0.000847,-0.489321,0.070089,0.205226,0.461023,0.145835,0.738484,0.268154,0.137723,0.500590,0.804369,0.969379,-0.537136,0.397804,-0.371434,-0.532655,0.055113,0.231933,0.281815,0.768243,-0.641355,0.135301,0.678806,0.711322,0.431394,0.431746,-0.466231,0.266873,0.256365,-0.794339,0.816216,0.327409,-0.279674,-0.024913,-0.064166,0.751280,0.814610,0.723372,0.044745,-0.981182,0.483753,0.179364,-0.277908,0.632357,0.890215,0.114059,0.778451,-0.114484,0.236133,0.384575,-0.626156,0.077916,-0.320342,-0.038977,-0.501059,-0.326951,-0.256595,0.246734,-0.345585,0.871558,1.213316,-0.364833,-0.301085,0.187249,1.089936,0.680080,-0.275067,0.193794,-0.905232,-0.732591,0.470290,-0.149931,0.819938,-0.218680,0.054397,0.603690,-0.227203,-0.001017,0.039872,0.246931,0.450982,0.311126,-0.640515,0.361482,-0.109192,0.101324,0.238212,0.151757,0.652075,-0.204502,0.252007,0.621085,0.054653,0.454152,0.599053,0.366992,-0.411148,-0.338635,-0.571816,-0.776052,0.564192,0.778721,0.913733,0.182237,0.110734,0.715743,0.431283,-0.727612,0.034445,-0.763605,-0.178548,-0.658963,0.719520,0.152940,0.527077,1.068644,0.973253,0.107847,-0.106648,0.612977,-0.007053,0.821603,-0.186214,-0.033894,-0.301583,-0.854631,-0.135320,-0.687401,0.202271,0.727410,-0.525528,0.452850,-0.449711,0.239096,0.902269,-0.740695,0.247451,-0.320561,0.571528,-0.164105,-0.599779,0.034009,-0.423686,0.283576,0.541379,0.397936,-0.892233,-0.430304,-0.604028,-0.296370,-0.899513,0.851320,-0.609822,-0.935829,-0.628770,-0.943363,0.423474,0.677662,0.179395,-0.283354,0.807862,-0.736560,-0.875731,0.240255,-0.368302,0.621739,0.766448,0.079650,-0.104850,0.441833,0.517537,-0.090275,-0.551737,-0.044565,0.164072,0.066838,0.257994,0.483558,-0.257472,0.609735,-0.898639,0.010617,0.233139,0.425626,-0.682743,-0.883023,0.850023,0.012726,0.031656,0.696449,0.790545,-0.536627,0.749843,-0.983625,-0.730352,0.856811,0.830687,-0.123592,-0.344143,-0.766787,-0.635640,-0.318672,0.030071,0.884071,0.759937,-0.783049,0.074340,-0.372066,0.451843,-0.520790,-0.815071,0.916875
0.553544,0.444508,0.723022,-0.676187,0.631927,0.365791,0.306198,-0.537749,-0.603084,0.274026,0.402039,0.266988,0.202253,-0.667794,-0.007218,-0.458623,0.871913,-0.182846,-0.268475,0.387349,0.355979,0.697022,-0.619120,-0.092692,0.006417,-0.415978,0.410643,-0.033368,0.750013,0.065922,0.781991,-0.358184,0.804922,-0.154882,-0.248903,0.130099,-0.054839,-0.502276,-0.543350,-0.619335,-0.162572,0.361070,-0.457959,0.048702,0.292984,0.204070,-0.250112,0.332024,0.765143,-0.608421,0.250616,0.516747,0.820568,-0.254248,-0.848951,0.915427,0.629659,-0.954274,-0.665663,-0.952890,0.952847,0.073881,0.578176,0.402516,-0.259454,-1.058518,0.019326,-0.806701,-0.406550,0.156110,-0.011482,-0.327743,-0.239436,0.614157,-0.513459,0.936822,-0.446387,-0.847955,-0.851455,0.303877,0.021054,0.703582,-0.350790,0.491684,-0.966544,0.461329,0.508577,0.857354,-0.013799,0.498814,0.627833,-0.809978,-0.995119,0.135702,0.375100,0.263689,-0.812106,-0.608871,0.317849,-0.612362,-1.166296,-0.812458,-0.932602,0.345531,-0.804037,0.953362,-0.883020,0.649374,-0.495304,-0.803166,-0.469810,-0.073960,0.560728,0.396734,0.787364,-0.395428,0.431225,-0.255863,-0.734796,-0.109831,0.636880,-0.114412,-1.280387,0.022994,-0.672867,-0.106625,-0.960635,-0.243461,-0.490497,-1.034818,0.263538,0.609505,-0.807286,-0.501846,-0.758419,0.840507,0.257682,-0.080699,-0.738884,0.727052,0.394303,-0.421152,-0.237979,-0.223090,0.601222,-0.163696,0.175597,-0.073260,-0.194586,-0.571815,0.214237,-0.425331,-1.213663,0.904010,-0.174906,-0.700241,0.594996,0.143599,0.587405,0.206609,-0.919327,0.700694,0.186875,-0.295895,0.512405,-0.140721,-0.948829,-0.224402,0.757425,-0.424997,-0.648280,0.675004,-0.539485,0.059119,0.220696,-0.569998,-0.073883,-0.408465,-0.619852,-1.174623,0.628467,-0.551208,0.394578,-0.271925,0.546901,-0.618975,0.330612,0.272067,-0.063897,0.137855,-0.445131,0.321668,-1.171889,0.220846,0.229731,0.763682,0.561043,0.036937,-0.399469,-0.399854,-0.328493,0.845617,-0.652949,-0.372530,0.103174,-0.204985,-0.304962,-0.185787,-0.612870,0.404933,-0.720105,-0.465232,-0.059852,0.718274,0.703926,0.828286,-0.472920,0.562662,0.316569,0.200079,-1.023939,-1.088947,-1.037432,0.674193,-0.280266,0.288644,0.638407,0.357870,0.396114,0.349000,0.530082,0.568186,-1.205876,0.326736,0.279355,-0.478725,-0.360268,-0.556496,0.835653,-1.043097,0.680654,0.498314,0.459649,-0.712368,0.097823,-0.010012,0.026894,0.634643,0.029335,-0.032328,-0.482575,0.282857,0.483019,-0.181978,1.050848,0.312596,-0.541590,0.593476,0.375939,0.303966,-1.237948,-0.097847,-0.229875,-0.553800,-0.272387,-0.865664,-0.413410,-1.097065,-0.886507,0.252212,0.199449,0.898387,-0.731007,0.987775,0.958119,-0.659706,-0.266330,0.290879,-0.126722,-0.685436,0.052442,0.537914,0.770348,0.416624,0.837913,0.194721,-0.487348,-0.088386,0.281554,-0.240232,-0.956626,0.328065,-0.213542,-0.380099,-1.083687,-0.488410,-0.581153,-0.275500,0.679161,1.096119,0.765059,0.124751,0.825497,1.013556,-0.043640,0.531029,-0.611402,-0.720308,0.441662,-0.539447,0.352503,0.185279,1.049016,0.838144,0.746375,0.535250,-0.489505,0.100075,0.567552,-0.358778,-0.416087,0.453382,-1.110750,-1.258308,-2.253889,-0.998812,-0.298887,1.250839,0.827995,0.902627,1.896745,1.530805,-0.073412,0.241466,0.437985,0.504136,0.530818,-0.447929,-0.490292,0.817177,-0.283506,0.075432,0.916411,0.635359,-0.337345,0.191772,-0.459478,0.910281,1.127259,-1.099590,-0.992946,-2.184505,-1.561259,-0.138629,0.827979,0.425190,-0.290998,0.299217,0.770516,0.540659,1.182579,-0.052731,0.862988,0.392469,-0.926162,-0.314518,0.947334,0.004047,0.697546,-0.072739,0.781682,1.119223,0.578254,0.162813,0.564520,-0.379817,-0.311853,-1.116574,-1.647958,-0.856504,-1.988506,-0.429963,-0.491943,0.804139,0.640112,-0.191864,0.903126,0.482895,0.672655,-0.252545,0.458925,0.496125,-0.476136,-0.283246,-0.817312,-0.792071,0.100854,0.928816,-0.580053,-0.030941,0.426447,-0.598782,0.605572,1.299221,-0.680719,-2.071897,-1.420645,-2.327488,-1.331772,0.623195,0.173736,-0.296304,0.188531,-0.669540,-0.192804,0.363378,1.366983,-0.538583,-0.908487,0.842250,-0.135938,-0.989196,-0.090059,0.091985,0.592662,1.319923,-0.457773,1.265542,-0.364300,0.562399,1.348885,-0.723263,-0.959339,-2.504692,-2.761627,-1.589384,0.120772,0.471298,0.724453,0.152547,0.332806,0.643136,0.229714,0.471825,0.018901,-0.029188,0.870868,0.705941,-0.121811,-0.076507,-0.281870,0.976828,0.173395,-0.114903,0.686405,0.013498,1.075109,0.668504,0.069510,-0.471636,-1.726253,-2.374539,-1.365344,-0.564966,-1.087664,0.074023,0.041028,0.208400,-0.498134,0.036044,0.535713,-1.057894,0.435270,-0.001100,-0.216323,-0.847461,-0.560259,-0.258755,-0.240773,-0.565476,0.380063,-0.133328,0.461665,1.302639,0.569342,-0.433666,-0.167959,-0.998336,-1.121365,-2.013796,-1.413490,0.190199,0.167398,0.094377,0.704199,-0.651321,0.771227,0.525065,-0.851247,0.512690,-0.808261,0.315753,0.546122,-0.054883,-0.914915,-0.714417,0.598389,0.208782,-0.276243,0.934884,0.487974,0.030828,-0.164910,0.578527,-0.071757,-0.249753,-1.670142,-1.243035,-0.893685,0.413457,0.488399,0.420034,0.308913,0.771969,-0.238227,0.573124,-0.630053,-0.110457,-0.662280,-0.325362,-0.629773,0.978494,-0.119728,0.541708,0.609775,-0.704164,-1.072489,-0.211759,-0.046571,1.143797,0.473542,-0.134326,0.973467,0.460952,-0.958376,-0.896631,-0.779679,0.071441,-0.519126,0.425807,0.682682,-0.281184,-0.089401,-0.151125,0.274325,-0.235864,-0.014840,0.474080,-0.566201,-0.140700,-0.901599,0.983342,-0.455550,-0.102649,-0.075292,-0.060726,0.238471,-0.749067,0.204624,-0.409649,0.098053,-1.179810,-0.209128,-0.283493,0.025513,0.270422,-0.998418,-0.565895,0.250771,-0.759672,0.239035,-0.398968,-0.357671,-1.109180,-0.490256,-0.784264,-0.904018,-0.059127,0.406101,0.650208,0.127800,-0.930105,-0.831243,-0.483543,-0.170351,-0.797084,-0.449811,-0.245923,-0.306118,0.732111,-0.102563,-0.704635,-0.011009,0.309208,0.464895,-0.091373,-0.144760,-0.384291,0.565581,0.339934,-1.196499,-0.047704,-0.218685,-0.763668,0.749490,0.348614,-0.656305,0.056242,-0.721593,-0.955557,-0.662377,0.671817,-0.857824,0.095042,-0.529898,-0.664795,0.091716,-0.701616,1.269511,-0.224436,0.098857,-0.114159,0.307136,-0.307233,0.044903,-0.837448,-0.658137,0.025395,-0.119530,0.552969,-0.346586,-0.509765,0.697504,0.543394,-0.402972,-0.148008,0.486751,-0.373279,0.401702,0.565845,-0.369956,-0.320385,0.616563,0.494126,-0.513293,-0.172767,0.723065,0.123921,0.289290,-0.426553,0.454219,-0.196506,-1.580960,-0.618938,0.551757,-0.860610,0.344845,0.672220,0.736539,-0.018261,0.624011,0.543375,0.426723,-0.752057,0.753331,-0.364593,-0.860446,0.885922,-0.317880,0.382915,-0.306755,-0.777876,-0.799327,0.265175,-0.333315,-0.325765,0.075178,-1.065108,0.113917,0.324055,-1.273415,-0.527154,-1.119677,0.162176,0.881350,0.757879,-0.395816,-0.216017,-0.483475,0.829975,0.647922,0.496303,-0.472285,0.795677,-0.387597,0.957533,-0.274743,0.954334,-0.775764,0.488082,-0.992576,-0.689732,-0.126796,-0.190201,0.586555,0.005297,0.551468,0.370554,-1.202818,-0.316471,0.823664,-0.292837,-0.504887,0.882269,0.410629,-0.836062,0.034222,0.848269,0.908775,0.965331,0.459678,-0.499878,-0.139008,0.580688,0.160413,0.753715,-0.314210,1.025645,0.429657,0.136685,0.972686,1.033303,-0.125329,0.987552,-0.804447,0.612399,-0.630458,-0.294632,0.562982,-0.584562,0.573961,-0.123649,-0.304707,-0.672525,-0.062697,0.329953,-0.880486,-0.919175,0.311755,-0.452430,0.276718,0.397628,-0.578656,0.484716,-0.378445,0.273284,-0.746967,-0.223450,-0.930121,0.298102,-0.060650,-0.967257,0.350314,0.357650,0.108959,-0.844239,-0.153413,-0.555517,0.127749,0.957472,0.154369,-0.406002,0.472380,0.458688
-0.130633,0.557168,0.894100,0.774871,-0.948843,0.435713,0.328955,0.059552,0.557310,0.566524,-0.945433,-0.014425,0.677005,0.803479,-0.966532,-0.654206,-0.001923,0.963276,-0.242916,0.589209,-0.195625,-0.065851,-0.395749,0.249757,0.854838,-0.948740,-0.414450,0.453614,-0.677354,-0.916251,0.448763,0.244070,0.868441,-0.047591,0.375811,-0.503130,0.350321,0.935798,-0.247431,-0.677035,0.624969,0.707402,0.262930,-0.097843,-0.183875,0.969169,-0.885850,-0.101004,-0.079802,0.555260,0.258672,0.772297,0.634156,-0.459664,0.186286,0.959188,-0.598871,0.726710,0.405660,0.443619,-0.839054,0.612380,-0.417760,0.137398,-0.538536,-0.690341,-0.497411,0.820480,0.668486,0.404350,0.163793,0.212965,1.054018,0.158238,-0.568736,-0.168040,0.286372,-0.320564,0.239068,0.624824,0.320231,-0.274130,0.120468,-0.721715,0.428056,0.802997,-0.888637,-0.710202,0.825828,0.441243,-0.306604,0.050880,-0.215195,0.173676,-0.063976,0.370066,0.628436,0.557533,0.089560,-0.092237,-0.978131,0.138786,-0.253355,-0.996347,-0.959094,0.815621,-0.887259,0.807653,0.478294,-0.680142,-0.786583,-0.275377,-0.623842,0.362894,0.794415,-0.238166,0.562954,-0.545217,0.494381,-0.151024,0.401972,-0.000878,0.811297,1.319055,0.507566,-0.556668,0.205368,-1.301022,-0.672491,0.717020,-0.772650,1.023309,0.471633,-0.730180,0.634003,0.840407,0.745223,0.909489,-0.323774,0.597392,-0.814892,0.245718,-0.838775,-0.094809,0.321631,0.514233,-0.192110,0.831899,0.384202,0.225091,0.916742,-0.293660,0.582323,-0.964409,-0.697886,0.608888,-0.563058,-0.114040,-0.707524,0.412579,0.983200,-0.500511,-0.663455,-0.884027,0.380889,-0.330136,-0.973860,0.234375,0.930358,-0.970885,0.856707,0.272963,0.136543,0.120605,-0.120734,-0.142708,0.359931,-0.679313,0.245888,-0.335309,-0.346264,0.241347,-1.339579,-0.488721,0.186322,-0.907335,0.878087,-0.713297,-0.506719,0.799167,-1.069564,-1.177905,0.665216,-0.482360,-0.851826,-0.540401,-0.993949,0.177723,0.590321,-0.081882,0.424868,0.125705,-0.352368,0.124556,0.033364,0.089985,-0.694038,0.383459,0.436913,-1.632117,-1.341422,0.013720,-0.246503,-1.288030,0.417875,0.190018,-0.592654,-0.627347,-1.140484,-0.736764,-0.660759,-0.062230,0.713037,-0.929222,-0.891234,-0.494922,-0.004081,-0.860695,-0.658273,-0.801901,-0.332176,-1.059024,-0.475300,0.430557,0.158367,0.380289,0.556338,0.320538,-1.155046,0.219249,0.115435,-0.268406,0.066825,0.332431,-0.655714,-0.326723,-0.731851,-0.693187,-1.350941,-0.376664,0.743742,-0.301214,-0.697596,0.292077,0.169800,-0.694446,0.901430,0.262365,0.966489,-0.642301,0.541362,-0.391895,0.153238,-0.095838,0.478380,0.159107,-0.465763,-0.874466,-0.881063,0.707586,-0.021458,-1.104157,0.126962,-0.917595,-0.598531,-0.891619,-0.875562,-0.227204,0.280681,-0.496477,0.182522,0.710673,1.008136,0.718690,-0.918139,0.114118,-0.710803,0.211488,-0.900097,0.173704,0.680066,0.647481,0.261366,-0.208027,-0.252393,-1.486777,-0.018237,-0.165026,-0.543997,-0.543924,-0.430565,0.002606,-1.396880,-1.277710,-1.350889,0.072100,0.084370,0.559951,-0.510134,0.997689,-0.827232,-0.362524,0.400712,0.254234,-0.836343,0.185723,-0.351117,-0.394481,-0.526498,0.513992,-0.411809,-0.797043,-1.557473,-0.674999,-0.609600,-0.494920,0.203973,0.652414,0.580223,-0.345387,0.414591,0.300066,0.506263,-0.142728,-0.490175,0.372962,-0.584953,-0.061808,-0.724271,-0.938587,0.485761,-0.911376,0.462394,-0.938799,-0.311764,0.763664,-1.071248,-0.066682,-1.579023,-1.242667,-0.333725,0.122788,-1.079847,0.584410,0.899334,0.883484,0.730251,-0.602850,-0.537337,-0.934746,0.472949,0.135559,0.510606,0.883866,-0.252997,0.583140,0.833923,0.017069,-0.751795,0.231020,0.221112,-0.670265,0.714306,-0.132971,-0.874703,-0.817988,-0.536080,0.284749,-0.495248,-0.659459,-0.561009,0.542949,0.106532,0.213825,-0.161482,-0.784881,-0.490424,0.329225,-0.454484,-0.001015,-0.813692,0.363803,0.878388,-0.226899,-0.013792,0.209486,-0.234353,-1.067651,-0.712556,0.966629,0.560905,-0.069828,-1.306776,-0.636519,-1.080156,0.777866,0.367208,-0.852413,-0.231621,-0.509551,0.469894,1.073370,-0.332255,-0.146341,1.216340,-0.622476,-0.542474,0.093647,-0.269943,-0.590993,0.800706,-0.093192,-1.055760,0.422862,-1.013320,0.861442,1.041194,1.090134,0.192287,0.999436,-0.047251,-0.165780,-0.362248,0.663918,-0.147303,0.940606,0.123545,1.158381,-0.132449,0.914249,-0.133295,-1.018936,-0.472304,0.558423,0.894551,0.787253,0.860428,-0.677636,0.813509,-0.047305,-0.196100,0.857172,0.499159,0.679939,1.087875,-0.192337,0.143739,-0.290547,0.501313,0.087493,-0.186794,-0.414377,-0.046595,1.137967,1.800806,-0.034232,0.144998,0.794902,-0.088434,0.485226,0.206747,0.941432,-0.370428,-0.584926,1.004317,-0.493425,0.961055,0.195724,0.469925,0.013112,-0.743857,-0.471649,-0.279355,0.873476,0.392017,0.084124,0.465461,0.616628,0.309592,0.282507,0.322374,1.656065,0.529167,0.487393,-0.136662,0.319346,0.591128,0.474621,1.021380,0.826167,1.197277,-0.086528,-0.717242,-0.666361,-0.066186,-0.807096,-0.717624,0.561776,-0.032121,0.628562,-0.094742,-0.096413,0.079807,0.401940,-0.133456,0.311091,0.043776,-0.340244,1.513904,0.414873,1.519548,1.151946,0.466024,0.328571,0.116741,0.464712,0.698357,-0.045820,0.868870,1.128191,-0.850823,-0.729388,-0.393678,0.846121,0.220886,0.669912,-0.173036,-0.399997,-0.227500,0.111499,1.137437,0.309067,-0.690029,-0.848076,-0.654968,-0.518108,1.279448,-0.095578,0.999078,1.197986,1.547010,0.701900,-0.641007,-0.158247,0.457082,-0.538793,0.704967,-0.394459,0.658094,0.562352,-0.609087,0.687369,-0.835028,0.303732,1.025572,0.315580,-0.306601,1.582475,1.104678,-0.804586,-0.441928,0.083518,-1.366162,-0.849572,0.889497,-0.025750,1.030407,-0.035061,0.217399,-0.818175,0.828361,0.481427,0.395411,1.205876,1.291072,0.860063,-0.449781,0.575058,-0.261749,-0.725797,0.126276,-0.345418,-0.253215,0.737201,-0.493778,0.776904,1.013992,-0.613939,-0.811615,-0.492090,-0.891044,-0.256422,0.208960,-1.230154,-0.881479,0.174164,-0.345793,-0.624005,-0.947989,0.712023,-0.660616,-0.599704,0.465270,-0.212200,0.230613,-0.191747,0.382750,0.826320,0.720329,-0.806771,-0.188080,-0.643792,-0.098452,-0.022325,-0.925247,0.148146,-0.809977,-0.858258,-0.969508,0.092704,-0.902712,-0.991579,-0.762354,-0.352950,-0.863783,0.199194,-0.207840,0.532153,-0.501362,-0.879002,-0.625343,-0.947435,0.515598,-0.664761,-0.830254,-0.119784,-0.604741,0.534469,0.383203,-0.070548,0.229670,-0.230336,-0.134240,-0.758710,-0.567180,-0.250996,-0.960903,-0.886606,-0.606777,-0.522110,-1.305895,-1.294052,-0.809662,0.182117,0.393137,0.558617,0.338359,0.171303,-0.481586,0.356817,-0.345246,-0.196369,-0.058145,0.505606,-0.492102,0.178113,-1.052706,-0.072970,-0.924306,-0.039872,0.259716,0.460503,-0.804747,-0.417291,-0.855649,0.273942,-0.810888,-0.873376,-0.308585,0.290841,-0.298924,-0.248623,-0.851395,0.515480,-0.611449,0.824168,0.253137,-0.322060,0.538315,-0.599310,-0.450681,0.571457,-0.306133,-0.441560,0.901444,0.310824,-0.042766,-0.445652,0.777357,-0.295320,-0.466841,-1.134360,-0.123621,-0.538007,0.469674,0.801599,-0.790224,-1.058654,-0.706670,0.053435,0.125520,-0.373116,-0.379490,0.348137,0.888634,0.181507,0.687257,0.003892,0.034718,-0.068446,-0.377148,0.869575,-0.271847,-0.781074,-0.246908,-0.915453,0.882100,1.002172,0.842891,0.297093,0.815833,-0.033102,0.790761,0.685123,0.243473,0.555173,0.924062,-0.952380,-0.011300,0.969994,-0.727306,-0.194467,0.433885,-0.385229,-0.470014,0.976664,0.456395,0.856664,-0.463977,0.744416,0.925145,0.244851,-0.838253,0.309266,0.443821,0.928349,0.098818,0.115738,0.020089,-0.767897,0.643500,0.653424,0.364688,-0.709247,-0.964796,-0.482186,-0.797166,0.047680,-0.533063,-0.447088,-0.762246,-0.572476,-0.385397,0.477047
